{"learner":{"attributes":{"scikit_learn":"{\"_estimator_type\": \"classifier\"}"},"feature_names":[],"feature_types":[],"gradient_booster":{"model":{"gbtree_model_param":{"num_parallel_tree":"1","num_trees":"100"},"iteration_indptr":[0,1,2,3,4,5,6,7,8,9,10,11,12,13,14,15,16,17,18,19,20,21,22,23,24,25,26,27,28,29,30,31,32,33,34,35,36,37,38,39,40,41,42,43,44,45,46,47,48,49,50,51,52,53,54,55,56,57,58,59,60,61,62,63,64,65,66,67,68,69,70,71,72,73,74,75,76,77,78,79,80,81,82,83,84,85,86,87,88,89,90,91,92,93,94,95,96,97,98,99,100],"tree_info":[0,0,0,0,0,0,0,0,0,0,0,0,0,0,0,0,0,0,0,0,0,0,0,0,0,0,0,0,0,0,0,0,0,0,0,0,0,0,0,0,0,0,0,0,0,0,0,0,0,0,0,0,0,0,0,0,0,0,0,0,0,0,0,0,0,0,0,0,0,0,0,0,0,0,0,0,0,0,0,0,0,0,0,0,0,0,0,0,0,0,0,0,0,0,0,0,0,0,0,0],"trees":[{"base_weights":[-0E0,-1.1844838E0,7.315723E-1,-1.6589174E0,-6.793771E-1,2.975123E-1,1.4227952E0,-1.8988105E0,-1.3877474E0,-1.0732898E0,4.1452992E-1,-2.4071959E-1,1.2710836E0,1.0405245E0,1.5467961E0,-1.948403E0,-1.6694214E0,-1.4714533E0,-8.1459856E-1,-1.6810933E0,-9.4905835E-1,9.909139E-1,-7.332625E-1,-5.114354E-1,2.741201E-1,1.5619553E0,6.472256E-1,3.7864077E-1,1.1316147E0,1.4105827E0,1.650472E0,-5.8591145E-1,-1.030303E0,-1.8393352E0,-1.3207548E0,-1.6129963E0,-1.2572659E0,2.857143E-1,-1.3880266E0,-5.6917435E-1,-1.5206186E0,-1.1208099E0,-5.724104E-1,1.4354838E0,4.869762E-1,-9.5883775E-1,8.5714287E-1,-1.2134097E0,-2.563798E-1,-3.1296572E-1,3.6848426E-1,2.8169014E-2,1.6031128E0,8.52071E-2,1.8569604E0,-9.8039216E-1,5.6438357E-1,1.0201465E0,1.4427084E0,1.0923318E0,1.4620187E0,1.4194485E0,1.6801556E0,2.7272728E-1,-5.0769234E-1,-5.56546E-1,1.5E-1,-4.7058827E-1,-4.347826E-2,-5.0523466E-1,-3.9569893E-1,-2.6932186E-1,-4.8295823E-1,-3.1304348E-1,1.7755103E-1,-4.4930235E-1,2.1600002E-1,-5.7428575E-1,-4.275E-1,-3.8023257E-1,-2.3458982E-1,-2.3766817E-1,-1.3906707E-1,-9.23077E-2,4.4288662E-1,-1.0847458E-1,3.140713E-1,-1.18403554E-1,-4.8601586E-1,3.157895E-2,4.3636367E-1,-5.7131475E-1,-3.0985627E-1,-1.335505E-1,4.5161292E-2,-1.6000001E-1,7.0769235E-2,7.116477E-2,1.92302E-1,-4.2857146E-1,8.160001E-2,3.0467293E-1,4.9226624E-1,-1.2979127E-1,2.8125E-1,5.763636E-1,4.393701E-1,4.615385E-2,-3.714286E-1,2.4705884E-1,4.8648648E-2,-2.5000002E-2,3.128972E-1,1.5692309E-1,4.5572847E-1,3.3634895E-1,5.0000004E-2,4.2324725E-1,5.194631E-1,4.6741575E-1,2.7547172E-1,3.7864077E-1,5.0620914E-1],"categories":[],"categories_nodes":[],"categories_segments":[],"categories_sizes":[],"default_left":[0,0,0,0,0,0,0,0,0,0,0,0,0,0,0,0,0,0,0,0,0,0,0,0,0,0,0,0,0,0,0,0,0,0,0,0,0,0,0,0,0,0,0,0,0,0,0,0,0,0,0,0,0,0,0,0,0,0,0,0,0,0,0,0,0,0,0,0,0,0,0,0,0,0,0,0,0,0,0,0,0,0,0,0,0,0,0,0,0,0,0,0,0,0,0,0,0,0,0,0,0,0,0,0,0,0,0,0,0,0,0,0,0,0,0,0,0,0,0,0,0,0,0],"id":0,"left_children":[1,3,5,7,9,11,13,15,17,19,21,23,25,27,29,31,33,35,37,39,41,43,45,47,49,51,53,55,57,59,61,-1,63,65,67,69,71,73,75,-1,77,79,81,83,85,87,89,91,93,95,97,99,101,103,105,107,109,111,113,115,117,119,121,-1,-1,-1,-1,-1,-1,-1,-1,-1,-1,-1,-1,-1,-1,-1,-1,-1,-1,-1,-1,-1,-1,-1,-1,-1,-1,-1,-1,-1,-1,-1,-1,-1,-1,-1,-1,-1,-1,-1,-1,-1,-1,-1,-1,-1,-1,-1,-1,-1,-1,-1,-1,-1,-1,-1,-1,-1,-1,-1,-1],"loss_changes":[1.2403589E4,1.3085635E3,2.6544863E3,1.8064844E2,1.141801E3,2.8492014E3,1.6017383E2,1.3723145E1,6.2429443E1,1.4547583E2,4.6514816E2,4.882323E2,3.502556E2,5.015576E1,3.4035645E1,3.184082E0,1.3699707E1,3.3018066E1,1.08446815E2,8.535828E0,1.0412378E2,1.040936E2,8.521925E1,4.106809E2,6.7010666E1,8.325049E1,4.1950595E2,2.6553665E1,2.4085205E1,1.6732666E1,7.6018066E0,0E0,1.2130537E1,7.6066895E0,2.680516E1,1.2258179E1,5.743811E1,2.4827862E1,2.713942E1,0E0,4.574646E0,5.422168E1,1.1818008E1,1.8094452E1,1.05263824E2,7.639142E1,1.3209843E1,7.432312E1,1.2951096E2,2.0415457E1,3.707927E1,1.2998117E1,2.6853027E1,1.8687822E2,2.12146E0,3.9172592E0,9.377808E0,1.3850464E1,1.2692902E1,4.076584E0,1.0817139E1,1.0535492E1,1.7419434E0,0E0,0E0,0E0,0E0,0E0,0E0,0E0,0E0,0E0,0E0,0E0,0E0,0E0,0E0,0E0,0E0,0E0,0E0,0E0,0E0,0E0,0E0,0E0,0E0,0E0,0E0,0E0,0E0,0E0,0E0,0E0,0E0,0E0,0E0,0E0,0E0,0E0,0E0,0E0,0E0,0E0,0E0,0E0,0E0,0E0,0E0,0E0,0E0,0E0,0E0,0E0,0E0,0E0,0E0,0E0,0E0,0E0,0E0,0E0,0E0],"parents":[2147483647,0,0,1,1,2,2,3,3,4,4,5,5,6,6,7,7,8,8,9,9,10,10,11,11,12,12,13,13,14,14,15,15,16,16,17,17,18,18,19,19,20,20,21,21,22,22,23,23,24,24,25,25,26,26,27,27,28,28,29,29,30,30,32,32,33,33,34,34,35,35,36,36,37,37,38,38,40,40,41,41,42,42,43,43,44,44,45,45,46,46,47,47,48,48,49,49,50,50,51,51,52,52,53,53,54,54,55,55,56,56,57,57,58,58,59,59,60,60,61,61,62,62],"right_children":[2,4,6,8,10,12,14,16,18,20,22,24,26,28,30,32,34,36,38,40,42,44,46,48,50,52,54,56,58,60,62,-1,64,66,68,70,72,74,76,-1,78,80,82,84,86,88,90,92,94,96,98,100,102,104,106,108,110,112,114,116,118,120,122,-1,-1,-1,-1,-1,-1,-1,-1,-1,-1,-1,-1,-1,-1,-1,-1,-1,-1,-1,-1,-1,-1,-1,-1,-1,-1,-1,-1,-1,-1,-1,-1,-1,-1,-1,-1,-1,-1,-1,-1,-1,-1,-1,-1,-1,-1,-1,-1,-1,-1,-1,-1,-1,-1,-1,-1,-1,-1,-1,-1],"split_conditions":[1.1737089E-1,-2.5821596E-1,1.6183424E0,-4.460094E-1,2.9584732E1,1E0,2.140845E0,-4.8826292E-1,1.0088587E0,-3.6791444E-1,2.01E2,8.7323946E-1,2.11E2,-3.6791444E-1,3.0734906E0,4.13953E2,2.7081417E-3,1.8609625E-1,1.09E2,-4.4171122E-1,2.7081417E-3,1.09E2,3.75E2,-2.5561497E-1,-3.6711758E-1,-3.6791444E-1,3.75E2,-9.9904484E-1,3E0,-9.9904484E-1,-3.6791444E-1,-5.8591145E-1,4.25E2,3.75E2,1.5946524E0,-2.9107982E-1,8.042781E-1,-1.2192513E-1,3.85E2,-5.6917435E-1,-9.9904484E-1,6.6524065E-1,-1.9529372E-2,-1.9364892E0,1.81E2,3.06E2,2.025207E0,-4.7058824E-1,2.7081417E-3,2.7081417E-3,2.7081417E-3,-6.0320854E-1,-9.9904484E-1,2.7081417E-3,1E0,1.6713614E0,-3.6898395E-1,-1.9364892E0,-9.9904484E-1,3E0,1.0088587E0,-3.6898395E-1,-1.9364892E0,2.7272728E-1,-5.0769234E-1,-5.56546E-1,1.5E-1,-4.7058827E-1,-4.347826E-2,-5.0523466E-1,-3.9569893E-1,-2.6932186E-1,-4.8295823E-1,-3.1304348E-1,1.7755103E-1,-4.4930235E-1,2.1600002E-1,-5.7428575E-1,-4.275E-1,-3.8023257E-1,-2.3458982E-1,-2.3766817E-1,-1.3906707E-1,-9.23077E-2,4.4288662E-1,-1.0847458E-1,3.140713E-1,-1.18403554E-1,-4.8601586E-1,3.157895E-2,4.3636367E-1,-5.7131475E-1,-3.0985627E-1,-1.335505E-1,4.5161292E-2,-1.6000001E-1,7.0769235E-2,7.116477E-2,1.92302E-1,-4.2857146E-1,8.160001E-2,3.0467293E-1,4.9226624E-1,-1.2979127E-1,2.8125E-1,5.763636E-1,4.393701E-1,4.615385E-2,-3.714286E-1,2.4705884E-1,4.8648648E-2,-2.5000002E-2,3.128972E-1,1.5692309E-1,4.5572847E-1,3.3634895E-1,5.0000004E-2,4.2324725E-1,5.194631E-1,4.6741575E-1,2.7547172E-1,3.7864077E-1,5.0620914E-1],"split_indices":[1,1,1,1,2,3,1,1,3,0,2,1,2,0,1,2,4,0,2,0,4,2,2,0,0,0,2,4,2,4,0,0,2,2,0,1,0,0,2,0,4,0,0,4,2,2,3,0,4,4,4,0,4,4,4,1,0,4,4,3,3,0,4,0,0,0,0,0,0,0,0,0,0,0,0,0,0,0,0,0,0,0,0,0,0,0,0,0,0,0,0,0,0,0,0,0,0,0,0,0,0,0,0,0,0,0,0,0,0,0,0,0,0,0,0,0,0,0,0,0,0,0,0],"split_type":[0,0,0,0,0,0,0,0,0,0,0,0,0,0,0,0,0,0,0,0,0,0,0,0,0,0,0,0,0,0,0,0,0,0,0,0,0,0,0,0,0,0,0,0,0,0,0,0,0,0,0,0,0,0,0,0,0,0,0,0,0,0,0,0,0,0,0,0,0,0,0,0,0,0,0,0,0,0,0,0,0,0,0,0,0,0,0,0,0,0,0,0,0,0,0,0,0,0,0,0,0,0,0,0,0,0,0,0,0,0,0,0,0,0,0,0,0,0,0,0,0,0,0],"sum_hessian":[1.4312E4,5.46425E3,8.84775E3,2.8165E3,2.64775E3,5.43575E3,3.412E3,1.49125E3,1.32525E3,1.94675E3,7.01E2,3.501E3,1.93475E3,8.38E2,2.574E3,1.22E3,2.7125E2,1.155E3,1.7025E2,3.2825E2,1.6185E3,4.6675E2,2.3425E2,2.2945E3,1.2065E3,1.3185E3,6.1625E2,1.02E2,7.36E2,1.11875E3,1.45525E3,1.21275E3,7.25E0,1.795E2,9.175E1,6.915E2,4.635E2,5.85E1,1.1175E2,1.3525E2,1.93E2,1.11025E3,5.0825E2,2.47E2,2.1975E2,2.055E2,2.875E1,6.105E2,1.684E3,1.6675E2,1.03975E3,3.45E1,1.284E3,4.215E2,1.9475E2,1.175E1,9.025E1,5.45E2,1.91E2,1.5875E2,9.6E2,1.7125E2,1.284E3,1.75E0,5.5E0,1.785E2,1E0,7.55E1,1.625E1,5.53E2,1.385E2,2.3125E2,2.3225E2,1.05E1,4.8E1,1.065E2,5.25E0,3.4E1,1.59E2,7.73E2,3.3725E2,1.6625E2,3.42E2,5.5E0,2.415E2,8.75E1,1.3225E2,1.1175E2,9.375E1,1.325E1,1.55E1,1.245E2,4.86E2,1.15025E3,5.3375E2,1.19E2,4.775E1,7.03E2,3.3675E2,4.25E0,3.025E1,7.925E1,1.20475E3,2.625E2,1.59E2,1.64E2,3.075E1,2.25E0,9.5E0,5.425E1,3.6E1,1.1E1,5.34E2,1.525E1,1.7575E2,1.5375E2,5E0,8.12E2,1.48E2,1.325E2,3.875E1,2.475E1,1.25925E3],"tree_param":{"num_deleted":"0","num_feature":"5","num_nodes":"123","size_leaf_vector":"1"}},{"base_weights":[-2.9467623E-4,-8.3413655E-1,5.626318E-1,-1.3039705E0,-4.9213585E-1,2.0118989E-1,1.0056043E0,-1.5022218E0,-1.1201602E0,-7.843709E-1,3.2078737E-1,-2.0064303E-1,9.3973E-1,7.189844E-1,1.1528159E0,-1.5058907E0,-7.921287E-1,-1.3401618E0,-9.8670506E-1,-1.2692782E0,-6.8719554E-1,7.4357337E-1,-5.2819985E-1,-8.5528874E-1,-9.399037E-2,1.1812038E0,4.974369E-1,6.0661566E-1,1.1671212E0,1.0406901E0,1.2395772E0,-4.6043485E-1,-1.4264317E0,2.235949E-1,-4.0255463E-1,-1.4602802E0,-1.229268E0,-1.119169E0,-7.383181E-1,-4.448325E-1,-1.1257875E0,-8.209155E-1,-4.00669E-1,2.5057292E-1,1.0666003E0,-8.6118966E-1,1.9944109E-1,-1.2372276E0,-5.276271E-1,-2.4644092E-1,1.445386E-1,2.0970698E-2,1.212407E0,1.0377779E-1,1.4342448E0,2.0544693E-1,6.663802E-1,4.989176E-1,1.021703E0,7.9122204E-1,1.0818915E0,1.0517845E0,1.2641551E0,-4.4813198E-1,-3.7846947E-1,-4.7510245E-1,-4.1243395E-1,-2.4461678E-1,-3.9498302E-1,-3.391981E-1,2.9478782E-1,5.45206E-1,-2.4518402E-1,-4.6013343E-1,-3.099584E-1,-2.7864093E-1,-1.7314647E-1,-1.3968341E-1,-7.7348617E-3,2.175534E-1,-1.3919458E-1,-9.722649E-2,3.3444294E-1,-2.9636645E-1,1.2617707E-1,5.8061165E-1,-2.4447525E-1,-4.0946248E-1,-2.584606E-1,-4.0658113E-1,-1.1007512E-1,1.659352E-1,-8.754828E-2,5.347824E-3,1.0560497E-1,-4.1440675E-1,1.3094799E-1,4.2289358E-1,3.2483345E-1,-2.1318983E-1,1.2410405E-1,4.4817662E-1,3.238432E-1,-3.865467E-1,7.3954605E-2,1.6976929E-1,2.5653222E-1,3.7419334E-1,1.9686572E-1,1.6391388E-1,2.6880145E-1,3.1183103E-1,3.932702E-1,3.4897077E-1,1.9904998E-1,3.801256E-1,2.0610625E-1],"categories":[],"categories_nodes":[],"categories_segments":[],"categories_sizes":[],"default_left":[0,0,0,0,0,0,0,0,0,0,0,0,0,0,0,0,0,0,0,0,0,0,0,0,0,0,0,0,0,0,0,0,0,0,0,0,0,0,0,0,0,0,0,0,0,0,0,0,0,0,0,0,0,0,0,0,0,0,0,0,0,0,0,0,0,0,0,0,0,0,0,0,0,0,0,0,0,0,0,0,0,0,0,0,0,0,0,0,0,0,0,0,0,0,0,0,0,0,0,0,0,0,0,0,0,0,0,0,0,0,0,0,0,0,0,0,0],"id":1,"left_children":[1,3,5,7,9,11,13,15,17,19,21,23,25,27,29,31,33,35,37,39,41,43,45,47,49,51,53,55,57,59,61,-1,63,-1,-1,65,67,69,71,-1,73,75,77,79,81,83,85,87,89,91,93,95,97,99,101,103,105,-1,107,109,111,113,115,-1,-1,-1,-1,-1,-1,-1,-1,-1,-1,-1,-1,-1,-1,-1,-1,-1,-1,-1,-1,-1,-1,-1,-1,-1,-1,-1,-1,-1,-1,-1,-1,-1,-1,-1,-1,-1,-1,-1,-1,-1,-1,-1,-1,-1,-1,-1,-1,-1,-1,-1,-1,-1,-1],"loss_changes":[6.46752E3,8.916382E2,1.316771E3,8.3541504E1,7.640968E2,1.344804E3,1.5510449E2,1.7307129E0,3.4423462E1,1.1058728E2,3.058254E2,2.0484967E2,1.6994421E2,6.2575134E1,2.244629E1,3.7109375E-1,7.65842E0,4.2910156E0,2.4231812E1,1.0391846E1,7.525299E1,9.026193E1,6.885478E1,5.0791016E1,9.1856705E1,3.7339478E1,2.084377E2,2.4002808E1,1.6392273E1,1.0148315E1,4.9953613E0,0E0,1.574707E0,0E0,0E0,8.0596924E-2,7.7428894E0,1.3060669E1,5.5533157E1,0E0,7.467041E0,3.481018E1,1.5317383E1,7.709379E1,2.3366058E1,3.2028E1,1.5971524E2,7.891144E0,2.9163956E1,5.60782E1,2.5894735E1,1.6946333E1,2.417041E1,1.0108089E2,1.9288025E0,8.415863E0,1.612555E1,0E0,1.5390121E1,3.4992905E0,7.5445557E0,6.348755E0,1.170166E0,0E0,0E0,0E0,0E0,0E0,0E0,0E0,0E0,0E0,0E0,0E0,0E0,0E0,0E0,0E0,0E0,0E0,0E0,0E0,0E0,0E0,0E0,0E0,0E0,0E0,0E0,0E0,0E0,0E0,0E0,0E0,0E0,0E0,0E0,0E0,0E0,0E0,0E0,0E0,0E0,0E0,0E0,0E0,0E0,0E0,0E0,0E0,0E0,0E0,0E0,0E0,0E0,0E0,0E0],"parents":[2147483647,0,0,1,1,2,2,3,3,4,4,5,5,6,6,7,7,8,8,9,9,10,10,11,11,12,12,13,13,14,14,15,15,16,16,17,17,18,18,19,19,20,20,21,21,22,22,23,23,24,24,25,25,26,26,27,27,28,28,29,29,30,30,32,32,35,35,36,36,37,37,38,38,40,40,41,41,42,42,43,43,44,44,45,45,46,46,47,47,48,48,49,49,50,50,51,51,52,52,53,53,54,54,55,55,56,56,58,58,59,59,60,60,61,61,62,62],"right_children":[2,4,6,8,10,12,14,16,18,20,22,24,26,28,30,32,34,36,38,40,42,44,46,48,50,52,54,56,58,60,62,-1,64,-1,-1,66,68,70,72,-1,74,76,78,80,82,84,86,88,90,92,94,96,98,100,102,104,106,-1,108,110,112,114,116,-1,-1,-1,-1,-1,-1,-1,-1,-1,-1,-1,-1,-1,-1,-1,-1,-1,-1,-1,-1,-1,-1,-1,-1,-1,-1,-1,-1,-1,-1,-1,-1,-1,-1,-1,-1,-1,-1,-1,-1,-1,-1,-1,-1,-1,-1,-1,-1,-1,-1,-1,-1,-1,-1],"split_conditions":[1.6703062E-1,-3.004695E-1,1.3774754E0,-4.8826292E-1,2.9584732E1,1.4055976E1,2.140845E0,4.13953E2,-1.764706E-1,-3.6791444E-1,2.01E2,-3.6711758E-1,1.97E2,1.0088587E0,3.0734906E0,-5.492958E-1,4.25E2,-3.6791444E-1,2.7081417E-3,-4.4171122E-1,2.7081417E-3,-5.80613E-2,2.7081417E-3,5.697329E-1,7.5601214E-1,-3.6711758E-1,3.75E2,-3.6791444E-1,2E0,-9.9904484E-1,-3.6791444E-1,-4.6043485E-1,2.7081417E-3,2.235949E-1,-4.0255463E-1,-4.4171122E-1,-3.529412E-1,3.9640768E2,9.767121E-1,-4.448325E-1,-9.9904484E-1,6.4812833E-1,9.389672E-2,1.24E2,-3.6791444E-1,3.75E2,1E0,2.7081417E-3,-9.9904484E-1,-1.9364892E0,5.647059E-1,1.0088587E0,9.7E1,1.0088587E0,1E0,-1.9364892E0,2.7081417E-3,4.989176E-1,1.866637E2,-1.6149732E-1,1.0088587E0,-3.6898395E-1,3.1340623E0,-4.4813198E-1,-3.7846947E-1,-4.7510245E-1,-4.1243395E-1,-2.4461678E-1,-3.9498302E-1,-3.391981E-1,2.9478782E-1,5.45206E-1,-2.4518402E-1,-4.6013343E-1,-3.099584E-1,-2.7864093E-1,-1.7314647E-1,-1.3968341E-1,-7.7348617E-3,2.175534E-1,-1.3919458E-1,-9.722649E-2,3.3444294E-1,-2.9636645E-1,1.2617707E-1,5.8061165E-1,-2.4447525E-1,-4.0946248E-1,-2.584606E-1,-4.0658113E-1,-1.1007512E-1,1.659352E-1,-8.754828E-2,5.347824E-3,1.0560497E-1,-4.1440675E-1,1.3094799E-1,4.2289358E-1,3.2483345E-1,-2.1318983E-1,1.2410405E-1,4.4817662E-1,3.238432E-1,-3.865467E-1,7.3954605E-2,1.6976929E-1,2.5653222E-1,3.7419334E-1,1.9686572E-1,1.6391388E-1,2.6880145E-1,3.1183103E-1,3.932702E-1,3.4897077E-1,1.9904998E-1,3.801256E-1,2.0610625E-1],"split_indices":[1,1,1,1,2,2,1,2,0,0,2,0,2,3,1,1,2,0,4,0,4,1,4,1,1,0,2,0,3,4,0,0,4,0,0,0,0,2,4,0,4,0,1,2,0,2,4,4,4,4,0,3,2,3,4,4,4,0,2,0,3,0,0,0,0,0,0,0,0,0,0,0,0,0,0,0,0,0,0,0,0,0,0,0,0,0,0,0,0,0,0,0,0,0,0,0,0,0,0,0,0,0,0,0,0,0,0,0,0,0,0,0,0,0,0,0,0],"split_type":[0,0,0,0,0,0,0,0,0,0,0,0,0,0,0,0,0,0,0,0,0,0,0,0,0,0,0,0,0,0,0,0,0,0,0,0,0,0,0,0,0,0,0,0,0,0,0,0,0,0,0,0,0,0,0,0,0,0,0,0,0,0,0,0,0,0,0,0,0,0,0,0,0,0,0,0,0,0,0,0,0,0,0,0,0,0,0,0,0,0,0,0,0,0,0,0,0,0,0,0,0,0,0,0,0,0,0,0,0,0,0,0,0,0,0,0,0],"sum_hessian":[1.3776516E4,5.552026E3,8.224489E3,2.337711E3,3.2143147E3,4.529838E3,3.6946516E3,1.1212241E3,1.2164869E3,2.364385E3,8.4992975E2,2.9341318E3,1.595706E3,1.2557001E3,2.4389517E3,1.114346E3,6.8781366E0,4.5589664E2,7.6059033E2,3.9270694E2,1.9716781E3,5.674635E2,2.8246625E2,4.100683E2,2.5240637E3,1.0310981E3,5.6460785E2,1.0058421E3,2.4985793E2,1.0696211E3,1.3693304E3,8.037717E2,3.1057425E2,1.7178578E0,5.160279E0,2.1300491E2,2.4289171E2,4.9376266E2,2.6682767E2,1.5409651E2,2.3861044E2,1.34303E3,6.28648E2,2.2533507E2,3.4212845E2,1.9365877E2,8.880747E1,1.8806932E2,2.2199898E2,1.5398617E3,9.842019E2,2.7047756E1,1.0040504E3,3.983336E2,1.6627429E2,1.309928E2,8.748493E2,5.4285378E1,1.9557256E2,1.5447913E2,9.15142E2,1.6354259E2,1.2057878E3,2.1478323E2,9.579102E1,8.0010635E1,1.3299428E2,4.4127026E1,1.987647E2,4.915373E2,2.225358E0,7.3372107E0,2.5949045E2,4.1256687E1,1.9735376E2,9.290331E2,4.13997E2,5.356195E2,9.302853E1,1.3539275E2,8.9942314E1,1.1271077E1,3.308574E2,1.7644702E2,1.7211746E1,3.2418987E1,5.6388485E1,1.3840955E2,4.9659775E1,3.4889248E1,1.8710973E2,8.211362E1,1.457748E3,6.1170355E2,3.7249832E2,5.651251E0,2.1396505E1,3.9427008E2,6.097804E2,1.094391E2,2.8889447E2,1.395833E2,2.6690994E1,2.6920094E0,1.2830078E2,5.7350214E2,3.0134717E2,1.1943453E2,7.6138016E1,4.815991E1,1.06319214E2,7.766937E2,1.384483E2,1.25518524E2,3.8024067E1,1.1985073E3,7.2805834E0],"tree_param":{"num_deleted":"0","num_feature":"5","num_nodes":"117","size_leaf_vector":"1"}},{"base_weights":[-5.6971767E-4,-7.53886E-1,3.738655E-1,-1.1541655E0,-4.9699718E-1,8.9745745E-2,7.640077E-1,-1.2911774E0,-9.730616E-1,-6.3626504E-1,1.494427E-1,-2.2724518E-1,7.1857506E-1,5.596676E-1,9.478723E-1,-1.2946665E0,-6.5250504E-1,-1.1108669E0,-7.10408E-1,-1.1111417E0,-5.4865634E-1,5.3159E-1,-4.5334518E-2,-5.041281E-1,-2.9847134E-2,9.3761855E-1,2.9146907E-1,4.6889567E-1,9.5995903E-1,8.479272E-1,1.0036865E0,-3.976435E-1,-1.2114826E0,1.8690747E-1,-3.4425113E-1,-1.3124628E0,-9.8425865E-1,4.1248623E-1,-7.4764484E-1,-1.2572501E0,-9.555752E-1,-6.361397E-1,-3.7033108E-1,6.167932E-1,-4.443333E-1,-8.582798E-1,-3.0308786E-1,-1.581629E-1,2.235607E-1,-1.6204953E-1,9.702823E-1,-4.5487266E-2,1.2047844E0,3.353806E-1,6.067766E-1,4.2609647E-1,8.373289E-1,7.7574676E-1,1.0031824E0,8.243715E-1,1.0280751E0,-3.846458E-1,-3.133973E-1,-3.9676163E-1,-7.149551E-2,-2.991688E-1,2.3630981E-1,-2.0608747E-1,-3.7919724E-1,-3.965922E-1,-2.7602848E-1,-3.3740804E-1,-1.8170919E-1,-2.8391385E-1,-1.7834753E-1,4.6569198E-1,-1.2321188E-1,-7.350596E-2,2.3340635E-1,-2.3211017E-1,3.886015E-2,-3.9552736E-1,-2.2677155E-1,-3.1796968E-1,-6.0478106E-2,1.4618762E-1,-6.379748E-2,5.576105E-2,3.4715062E-1,-2.5450107E-1,3.0350786E-2,2.3750384E-1,3.394026E-1,-1.3342038E-1,1.895964E-1,3.754334E-1,2.2343862E-1,-2.0559506E-1,1.0560441E-1,1.596703E-1,2.668385E-1,9.58274E-2,2.8960297E-1,1.3216868E-1,2.38362E-1,3.0556113E-1,-1.5023942E-1,2.6154318E-1,-9.193416E-3,1.9467919E-1,3.105834E-1],"categories":[],"categories_nodes":[],"categories_segments":[],"categories_sizes":[],"default_left":[0,0,0,0,0,0,0,0,0,0,0,0,0,0,0,0,0,0,0,0,0,0,0,0,0,0,0,0,0,0,0,0,0,0,0,0,0,0,0,0,0,0,0,0,0,0,0,0,0,0,0,0,0,0,0,0,0,0,0,0,0,0,0,0,0,0,0,0,0,0,0,0,0,0,0,0,0,0,0,0,0,0,0,0,0,0,0,0,0,0,0,0,0,0,0,0,0,0,0,0,0,0,0,0,0,0,0,0,0,0,0],"id":2,"left_children":[1,3,5,7,9,11,13,15,17,19,21,23,25,27,29,31,33,35,37,39,41,-1,43,45,47,49,51,53,55,57,59,-1,61,-1,-1,63,65,-1,67,69,71,73,75,77,79,81,83,85,87,89,91,93,95,97,99,-1,101,103,105,107,109,-1,-1,-1,-1,-1,-1,-1,-1,-1,-1,-1,-1,-1,-1,-1,-1,-1,-1,-1,-1,-1,-1,-1,-1,-1,-1,-1,-1,-1,-1,-1,-1,-1,-1,-1,-1,-1,-1,-1,-1,-1,-1,-1,-1,-1,-1,-1,-1,-1,-1],"loss_changes":[3.618886E3,4.3744482E2,9.499E2,4.004297E1,2.3384088E2,9.8884845E2,1.3514233E2,1.2598877E0,2.53042E1,8.8269226E1,1.4577626E2,1.8026251E2,1.5526782E2,6.178369E1,9.744263E0,7.993164E-1,5.2280107E0,1.0731262E1,2.0507233E1,6.3395386E0,2.7932251E1,0E0,1.09273254E2,9.747757E1,6.2682735E1,3.961499E1,1.739501E2,2.553476E1,1.663031E1,6.921112E0,4.458618E0,0E0,1.7877197E0,0E0,0E0,1.6190796E0,7.527527E0,0E0,6.8746033E0,2.4479065E0,9.073044E0,1.5070679E1,4.695333E1,2.1804802E1,4.887054E1,2.239392E1,6.716628E1,4.5112488E1,2.2588795E1,5.964874E0,2.9796326E1,1.12188255E2,2.3372498E0,1.2339027E1,1.3994186E1,0E0,1.6378296E1,2.6321106E0,5.4667053E0,6.123451E0,2.2337646E0,0E0,0E0,0E0,0E0,0E0,0E0,0E0,0E0,0E0,0E0,0E0,0E0,0E0,0E0,0E0,0E0,0E0,0E0,0E0,0E0,0E0,0E0,0E0,0E0,0E0,0E0,0E0,0E0,0E0,0E0,0E0,0E0,0E0,0E0,0E0,0E0,0E0,0E0,0E0,0E0,0E0,0E0,0E0,0E0,0E0,0E0,0E0,0E0,0E0,0E0],"parents":[2147483647,0,0,1,1,2,2,3,3,4,4,5,5,6,6,7,7,8,8,9,9,10,10,11,11,12,12,13,13,14,14,15,15,16,16,17,17,18,18,19,19,20,20,22,22,23,23,24,24,25,25,26,26,27,27,28,28,29,29,30,30,32,32,35,35,36,36,38,38,39,39,40,40,41,41,42,42,43,43,44,44,45,45,46,46,47,47,48,48,49,49,50,50,51,51,52,52,53,53,54,54,56,56,57,57,58,58,59,59,60,60],"right_children":[2,4,6,8,10,12,14,16,18,20,22,24,26,28,30,32,34,36,38,40,42,-1,44,46,48,50,52,54,56,58,60,-1,62,-1,-1,64,66,-1,68,70,72,74,76,78,80,82,84,86,88,90,92,94,96,98,100,-1,102,104,106,108,110,-1,-1,-1,-1,-1,-1,-1,-1,-1,-1,-1,-1,-1,-1,-1,-1,-1,-1,-1,-1,-1,-1,-1,-1,-1,-1,-1,-1,-1,-1,-1,-1,-1,-1,-1,-1,-1,-1,-1,-1,-1,-1,-1,-1,-1,-1,-1,-1,-1,-1],"split_conditions":[3.2863848E-2,-3.6150235E-1,1.2816901E0,-4.8826292E-1,1.0088587E0,2.9584732E1,2.3675814E0,4.13953E2,2.7081417E-3,-3.6791444E-1,2E0,-4.5989305E-2,2.04E2,1.0088587E0,3.0734906E0,-5.492958E-1,4.25E2,-1.764706E-1,9.767121E-1,-3.6898395E-1,2.7081417E-3,5.3159E-1,1.09E2,3.42723E-1,2.7081417E-3,-3.6711758E-1,3.75E2,1.769953E0,2E0,2.7081417E-3,-3.6791444E-1,-3.976435E-1,2.7081417E-3,1.8690747E-1,-3.4425113E-1,4.097761E0,3.85E2,4.1248623E-1,1.1546024E2,2.7081417E-3,-1.1737089E-1,-2.9946524E-1,1E0,8.1E1,2.7081417E-3,-9.9904484E-1,-4.181818E-1,-1.9364892E0,3.0481284E0,1.0088587E0,2.7081417E-3,2.7081417E-3,4E0,-8.342246E-1,1.1550802E0,4.2609647E-1,2.025207E0,-1.9364892E0,8E0,3E0,-1.9364892E0,-3.846458E-1,-3.133973E-1,-3.9676163E-1,-7.149551E-2,-2.991688E-1,2.3630981E-1,-2.0608747E-1,-3.7919724E-1,-3.965922E-1,-2.7602848E-1,-3.3740804E-1,-1.8170919E-1,-2.8391385E-1,-1.7834753E-1,4.6569198E-1,-1.2321188E-1,-7.350596E-2,2.3340635E-1,-2.3211017E-1,3.886015E-2,-3.9552736E-1,-2.2677155E-1,-3.1796968E-1,-6.0478106E-2,1.4618762E-1,-6.379748E-2,5.576105E-2,3.4715062E-1,-2.5450107E-1,3.0350786E-2,2.3750384E-1,3.394026E-1,-1.3342038E-1,1.895964E-1,3.754334E-1,2.2343862E-1,-2.0559506E-1,1.0560441E-1,1.596703E-1,2.668385E-1,9.58274E-2,2.8960297E-1,1.3216868E-1,2.38362E-1,3.0556113E-1,-1.5023942E-1,2.6154318E-1,-9.193416E-3,1.9467919E-1,3.105834E-1],"split_indices":[1,1,1,1,3,2,1,2,4,0,3,0,2,3,1,1,2,0,4,0,4,0,2,1,4,0,2,1,3,4,0,0,4,0,0,3,2,0,2,4,1,0,4,2,4,4,0,4,0,3,4,4,3,0,0,0,3,4,3,2,4,0,0,0,0,0,0,0,0,0,0,0,0,0,0,0,0,0,0,0,0,0,0,0,0,0,0,0,0,0,0,0,0,0,0,0,0,0,0,0,0,0,0,0,0,0,0,0,0,0,0],"split_type":[0,0,0,0,0,0,0,0,0,0,0,0,0,0,0,0,0,0,0,0,0,0,0,0,0,0,0,0,0,0,0,0,0,0,0,0,0,0,0,0,0,0,0,0,0,0,0,0,0,0,0,0,0,0,0,0,0,0,0,0,0,0,0,0,0,0,0,0,0,0,0,0,0,0,0,0,0,0,0,0,0,0,0,0,0,0,0,0,0,0,0,0,0,0,0,0,0,0,0,0,0,0,0,0,0,0,0,0,0,0,0],"sum_hessian":[1.282783E4,4.25875E3,8.56908E3,1.6633911E3,2.5953591E3,4.958963E3,3.6101174E3,9.434821E2,7.1990894E2,2.1353408E3,4.600183E2,3.2973948E3,1.661568E3,1.7117675E3,1.8983501E3,9.373342E2,6.14791E0,4.7005685E2,2.4985205E2,3.3076575E2,1.8045751E3,4.843661E1,4.115817E2,1.3717451E3,1.9256498E3,1.0975094E3,5.640586E2,1.3971212E3,3.1464615E2,6.860506E2,1.2122994E3,6.730855E2,2.642487E2,1.6465032E0,4.501407E0,1.7771632E2,2.9234055E2,3.7529442E0,2.460991E2,1.6691612E2,1.6384964E2,1.2089281E3,5.95647E2,1.5455537E2,2.570263E2,4.9553796E2,8.7620715E2,1.2785952E3,6.470545E2,3.1544987E1,1.0659644E3,4.1273523E2,1.5132335E2,7.11542E2,6.855793E2,6.3958633E1,2.5068752E2,4.724146E2,2.1363602E2,1.4931E2,1.0629894E3,1.8092174E2,8.332697E1,1.7583566E2,1.8806548E0,2.906502E2,1.6903296E0,2.2230214E2,2.3796978E1,1.3758322E2,2.9332901E1,1.089653E2,5.488434E1,1.4051251E2,1.0684156E3,1.14810295E1,5.8416595E2,2.4275522E1,1.3027985E2,1.6307964E2,9.3946686E1,8.802276E1,4.075152E2,1.0249445E2,7.737127E2,9.892803E1,1.1796672E3,6.230986E2,2.3955938E1,8.128558E0,2.3416428E1,5.0825906E2,5.577053E2,2.599097E2,1.5282553E2,1.35825E2,1.5498355E1,1.0765271E1,7.0077673E2,5.448013E2,1.4077797E2,5.037635E1,2.0031116E2,2.6378872E1,4.4603574E2,2.1179648E2,1.8395324E0,1.4144267E2,7.8673334E0,2.1516167E1,1.0414733E3],"tree_param":{"num_deleted":"0","num_feature":"5","num_nodes":"111","size_leaf_vector":"1"}},{"base_weights":[-7.2406087E-4,-5.440065E-1,3.208515E-1,-9.988257E-1,-3.3313528E-1,1.4417982E-1,6.8584836E-1,-1.1635222E0,-7.983208E-1,-4.6550563E-1,2.2265762E-1,-2.66836E-2,7.026815E-1,4.9169928E-1,7.734126E-1,-1.1999177E0,-1.0673591E0,-9.3708944E-1,-5.517946E-1,-9.2730826E-1,-3.9022902E-1,4.4568557E-1,5.9820727E-2,-1.5266612E-1,2.3221676E-1,4.2529923E-1,5.6764853E-1,3.8245404E-1,7.051205E-1,6.72456E-1,8.320616E-1,-3.6124644E-1,-6.3049537E-1,-1.1483682E0,-8.862874E-1,-1.1655458E0,-8.035971E-1,3.4738058E-1,-5.8225995E-1,-3.5807395E-1,-8.01104E-1,-4.7694024E-1,-2.2247174E-1,3.7388378E-1,-4.2124158E-1,-3.0194923E-1,8.976107E-2,4.1582775E-1,1.665751E-1,-8.1851736E-2,7.5881225E-1,1.8314196E-1,4.578402E-1,3.9323202E-1,6.041375E-1,6.062317E-1,8.207381E-1,6.5446323E-1,8.5825956E-1,1.3002996E-1,-3.0521947E-1,-3.5001987E-1,-1.05560444E-1,-3.6171725E-1,-2.3084767E-1,-3.5292387E-1,-5.882212E-2,-3.1776467E-1,-2.1366945E-1,-2.2518177E-1,-1.1378135E-1,-3.6435753E-1,-2.1490899E-1,-1.5247875E-1,-1.3912346E-2,3.9755735E-1,-7.846766E-2,-6.801682E-2,1.7410189E-1,-3.2794026E-1,-6.781087E-2,-2.4970953E-1,-5.003903E-2,2.9620653E-2,-5.4715806E-1,-2.5892875E-1,6.1594743E-2,1.0268969E-1,-2.4885926E-1,4.395439E-1,1.8250814E-1,-3.75921E-1,1.107858E-1,1.8388562E-1,1.004516E-1,1.6040973E-1,2.6127252E-1,1.9973539E-1,1.4653203E-1,3.7933403E-1,2.2029807E-1,2.3236795E-1,9.617785E-2,2.9655147E-1,2.4867213E-1],"categories":[],"categories_nodes":[],"categories_segments":[],"categories_sizes":[],"default_left":[0,0,0,0,0,0,0,0,0,0,0,0,0,0,0,0,0,0,0,0,0,0,0,0,0,0,0,0,0,0,0,0,0,0,0,0,0,0,0,0,0,0,0,0,0,0,0,0,0,0,0,0,0,0,0,0,0,0,0,0,0,0,0,0,0,0,0,0,0,0,0,0,0,0,0,0,0,0,0,0,0,0,0,0,0,0,0,0,0,0,0,0,0,0,0,0,0,0,0,0,0,0,0,0,0],"id":3,"left_children":[1,3,5,7,9,11,13,15,17,19,21,23,25,27,29,31,33,35,37,39,41,-1,43,45,47,-1,49,51,53,55,57,-1,59,61,63,65,67,-1,69,-1,71,73,75,77,79,81,83,-1,85,87,89,91,93,-1,95,97,99,101,103,-1,-1,-1,-1,-1,-1,-1,-1,-1,-1,-1,-1,-1,-1,-1,-1,-1,-1,-1,-1,-1,-1,-1,-1,-1,-1,-1,-1,-1,-1,-1,-1,-1,-1,-1,-1,-1,-1,-1,-1,-1,-1,-1,-1,-1,-1],"loss_changes":[2.0724397E3,4.226936E2,4.8041956E2,4.519336E1,2.2192209E2,4.793024E2,4.0934204E1,1.3955078E0,2.1139954E1,8.4300354E1,1.1932152E2,1.2550845E2,1.1279364E2,1.7405945E1,9.34668E0,5.5963135E-1,2.1944885E0,1.1372711E1,1.2677048E1,1.0490173E1,3.0380249E1,0E0,7.802002E1,9.369801E1,9.517262E1,0E0,1.231517E2,7.4832993E0,1.483403E1,5.5908203E0,4.3425293E0,0E0,2.9669938E0,1.7531128E0,1.7611008E0,1.31427E0,5.2706604E0,0E0,7.4747314E0,0E0,7.332428E0,1.8597961E1,4.3661644E1,3.886007E1,2.6512867E1,1.1471135E2,1.713363E1,0E0,4.776294E1,7.20618E1,8.051462E1,3.785799E1,6.753769E0,0E0,3.6250687E0,2.7081451E0,6.302185E0,5.353657E0,2.6801147E0,0E0,0E0,0E0,0E0,0E0,0E0,0E0,0E0,0E0,0E0,0E0,0E0,0E0,0E0,0E0,0E0,0E0,0E0,0E0,0E0,0E0,0E0,0E0,0E0,0E0,0E0,0E0,0E0,0E0,0E0,0E0,0E0,0E0,0E0,0E0,0E0,0E0,0E0,0E0,0E0,0E0,0E0,0E0,0E0,0E0,0E0],"parents":[2147483647,0,0,1,1,2,2,3,3,4,4,5,5,6,6,7,7,8,8,9,9,10,10,11,11,12,12,13,13,14,14,15,15,16,16,17,17,18,18,19,19,20,20,22,22,23,23,24,24,26,26,27,27,28,28,29,29,30,30,32,32,33,33,34,34,35,35,36,36,38,38,40,40,41,41,42,42,43,43,44,44,45,45,46,46,48,48,49,49,50,50,51,51,52,52,54,54,55,55,56,56,57,57,58,58],"right_children":[2,4,6,8,10,12,14,16,18,20,22,24,26,28,30,32,34,36,38,40,42,-1,44,46,48,-1,50,52,54,56,58,-1,60,62,64,66,68,-1,70,-1,72,74,76,78,80,82,84,-1,86,88,90,92,94,-1,96,98,100,102,104,-1,-1,-1,-1,-1,-1,-1,-1,-1,-1,-1,-1,-1,-1,-1,-1,-1,-1,-1,-1,-1,-1,-1,-1,-1,-1,-1,-1,-1,-1,-1,-1,-1,-1,-1,-1,-1,-1,-1,-1,-1,-1,-1,-1,-1,-1],"split_conditions":[1.3570677E-1,-3.6150235E-1,1.769953E0,-4.8826292E-1,1.0088587E0,1.0088587E0,2.3675814E0,-5.492958E-1,2.7081417E-3,-3.6791444E-1,2E0,2.7081417E-3,2E0,2.7081417E-3,3.0734906E0,4.13953E2,2.7081417E-3,-1.764706E-1,9.767121E-1,-4.983957E-1,2.7081417E-3,4.4568557E-1,1.86E2,8.920188E-1,1E0,4.2529923E-1,2.025207E0,-2.5989306E-1,1E0,2.7081417E-3,-3.6711758E-1,-3.6124644E-1,4.25E2,4.097761E0,-3.1657755E-1,4.097761E0,-9.9904484E-1,3.4738058E-1,2.5750452E-1,-3.5807395E-1,-9.9904484E-1,2.3149097E0,1E0,-1.971831E-1,-2.3529412E-1,-2.9946524E-1,3.1340623E0,4.1582775E-1,-3.6898395E-1,2.11E2,3E0,-9.9904484E-1,1.8609625E-1,3.9323202E-1,1.51123E0,2.7558684E0,9.943653E-1,-3.6898395E-1,-2.2566845E-1,1.3002996E-1,-3.0521947E-1,-3.5001987E-1,-1.05560444E-1,-3.6171725E-1,-2.3084767E-1,-3.5292387E-1,-5.882212E-2,-3.1776467E-1,-2.1366945E-1,-2.2518177E-1,-1.1378135E-1,-3.6435753E-1,-2.1490899E-1,-1.5247875E-1,-1.3912346E-2,3.9755735E-1,-7.846766E-2,-6.801682E-2,1.7410189E-1,-3.2794026E-1,-6.781087E-2,-2.4970953E-1,-5.003903E-2,2.9620653E-2,-5.4715806E-1,-2.5892875E-1,6.1594743E-2,1.0268969E-1,-2.4885926E-1,4.395439E-1,1.8250814E-1,-3.75921E-1,1.107858E-1,1.8388562E-1,1.004516E-1,1.6040973E-1,2.6127252E-1,1.9973539E-1,1.4653203E-1,3.7933403E-1,2.2029807E-1,2.3236795E-1,9.617785E-2,2.9655147E-1,2.4867213E-1],"split_indices":[1,1,1,1,3,3,1,1,4,0,3,4,3,4,1,2,4,0,4,0,4,0,2,1,4,0,3,0,4,4,0,0,2,3,0,3,4,0,0,0,4,0,4,1,0,0,0,0,0,2,3,4,0,0,0,1,4,0,0,0,0,0,0,0,0,0,0,0,0,0,0,0,0,0,0,0,0,0,0,0,0,0,0,0,0,0,0,0,0,0,0,0,0,0,0,0,0,0,0,0,0,0,0,0,0],"split_type":[0,0,0,0,0,0,0,0,0,0,0,0,0,0,0,0,0,0,0,0,0,0,0,0,0,0,0,0,0,0,0,0,0,0,0,0,0,0,0,0,0,0,0,0,0,0,0,0,0,0,0,0,0,0,0,0,0,0,0,0,0,0,0,0,0,0,0,0,0,0,0,0,0,0,0,0,0,0,0,0,0,0,0,0,0,0,0,0,0,0,0,0,0,0,0,0,0,0,0,0,0,0,0,0,0],"sum_hessian":[1.1860417E4,4.4097383E3,7.450678E3,1.3956926E3,3.0140457E3,5.02149E3,2.429188E3,7.636339E2,6.320587E2,2.4344158E3,5.7962994E2,3.845869E3,1.1756215E3,7.571146E2,1.6720734E3,5.4564343E2,2.1799051E2,4.0262265E2,2.2943605E2,3.3961935E2,2.0947964E3,6.527038E1,5.1435956E2,2.5872886E3,1.2585803E3,1.8524954E2,9.903719E2,5.0262497E2,2.5448965E2,6.1900446E2,1.053069E3,5.405069E2,5.136523E0,1.469188E2,7.107172E1,1.4564217E2,2.5698047E2,3.3688006E0,2.2606725E2,1.0648816E2,2.331312E2,1.3797708E3,7.150257E2,3.1132974E2,2.0302982E2,1.6011056E3,9.861829E2,6.666149E1,1.1919188E3,2.2533675E2,7.6503516E2,1.3887782E2,3.6374716E2,3.465625E1,2.198334E2,4.3141733E2,1.875871E2,1.3871176E2,9.143572E2,1.3377191E0,3.7988038E0,1.4315334E2,3.7654545E0,1.653227E1,5.4539448E1,1.4381664E2,1.8255275E0,6.4877144E1,1.9210333E2,1.2210411E2,1.0396314E2,3.7389305E1,1.957419E2,1.2860353E3,9.37354E1,1.6803015E1,6.9822266E2,7.9616615E1,2.3171312E2,4.4671513E1,1.5835829E2,3.2407822E2,1.2770275E3,9.8252356E2,3.6594012E0,4.2447502E1,1.1494713E3,1.4412071E2,8.121603E1,1.328059E2,6.3222925E2,1.5276762E1,1.2360105E2,1.591132E2,2.0463396E2,1.7681433E2,4.3019085E1,2.8345587E2,1.4796146E2,2.8355104E1,1.59232E2,1.01044945E2,3.7666817E1,1.621545E2,7.522027E2],"tree_param":{"num_deleted":"0","num_feature":"5","num_nodes":"105","size_leaf_vector":"1"}},{"base_weights":[-8.9438027E-4,-6.188931E-1,1.7989737E-1,-1.0077891E0,-4.4196573E-1,1.8272722E-2,4.8215485E-1,-1.0986593E0,-8.216844E-1,-9.331776E-1,-3.6694023E-1,-1.5318874E-1,4.2083064E-1,3.1627822E-1,6.1643267E-1,-1.1023239E0,-5.479796E-1,-9.8463535E-1,-5.471846E-1,-1.057483E0,-6.7607045E-1,-6.768881E-1,-3.0786777E-1,-8.9872026E-1,-1.187733E-1,8.8481855E-1,2.540239E-1,2.1092337E-1,5.1601744E-1,5.357975E-1,7.063508E-1,-3.372242E-1,-9.9035066E-1,1.1109257E-1,-2.7573118E-1,-9.9998456E-1,1.7226937E-1,-7.2220844E-1,2.329769E-1,-1.1552674E0,-9.295187E-1,-2.356015E-1,-9.282727E-1,-3.412152E-1,-1.0539687E0,5.9026456E-1,-3.223947E-1,-1.0464413E0,-4.353939E-1,-4.055125E-1,-5.9510596E-2,8.9554E-1,-4.891869E-1,-7.634138E-1,3.2571846E-1,1.8630725E-1,1.0801994E0,3.8012597E-1,3.7791675E-1,4.97537E-1,7.860293E-1,7.373437E-1,3.8203153E-1,-3.2143176E-1,-2.4177502E-1,-3.0430573E-1,-5.9867512E-2,-1.366223E-1,-2.86693E-1,3.0691534E-1,-2.9838562E-1,-3.5757726E-1,-1.6199127E-1,-2.5907195E-1,-3.80203E-1,-2.8382814E-1,3.5621694E-1,-3.6810288E-1,-1.446218E-1,-3.1187105E-1,-3.9713725E-2,-3.671055E-1,-2.0074315E-1,-1.1681623E-1,6.13757E-3,-3.374687E-1,-1.675984E-1,-4.784469E-2,-1.6129267E-1,6.532187E-2,-1.9499902E-1,-4.885927E-2,3.1355463E-2,3.5877842E-2,2.7454832E-1,1.3106559E-1,-3.707198E-1,-2.6105705E-1,2.5651324E-1,3.350137E-2,1.847642E-1,-2.8283013E-2,7.4093975E-2,1.7303967E-1,3.6475056E-1,7.979623E-2,2.1470124E-1,2.357451E-1,1.4294614E-1,1.3929317E-2,2.591744E-1,2.2744808E-1,1.592924E-1,-6.980913E-2,1.7667446E-1],"categories":[],"categories_nodes":[],"categories_segments":[],"categories_sizes":[],"default_left":[0,0,0,0,0,0,0,0,0,0,0,0,0,0,0,0,0,0,0,0,0,0,0,0,0,0,0,0,0,0,0,0,0,0,0,0,0,0,0,0,0,0,0,0,0,0,0,0,0,0,0,0,0,0,0,0,0,0,0,0,0,0,0,0,0,0,0,0,0,0,0,0,0,0,0,0,0,0,0,0,0,0,0,0,0,0,0,0,0,0,0,0,0,0,0,0,0,0,0,0,0,0,0,0,0,0,0,0,0,0,0,0,0,0,0],"id":4,"left_children":[1,3,5,7,9,11,13,15,17,19,21,23,25,27,29,31,33,35,37,39,41,43,45,47,49,51,53,55,57,59,61,-1,63,-1,-1,65,-1,67,69,71,73,75,77,79,81,-1,83,85,87,89,91,93,95,97,99,101,103,-1,105,107,109,111,113,-1,-1,-1,-1,-1,-1,-1,-1,-1,-1,-1,-1,-1,-1,-1,-1,-1,-1,-1,-1,-1,-1,-1,-1,-1,-1,-1,-1,-1,-1,-1,-1,-1,-1,-1,-1,-1,-1,-1,-1,-1,-1,-1,-1,-1,-1,-1,-1,-1,-1,-1,-1],"loss_changes":[1.2329368E3,1.7140424E2,4.1706616E2,1.2291382E1,6.298639E1,3.8410315E2,6.6059265E1,4.4781494E-1,1.1087952E1,6.541107E0,2.7115814E1,1.00027534E2,1.2842532E2,2.7937134E1,1.1532776E1,1.4587402E-1,2.1923895E0,4.4470215E0,1.3696737E1,8.18985E-1,8.308979E0,2.977317E1,4.2127975E1,1.1320374E1,6.3387234E1,6.9074097E0,8.953814E1,1.850562E1,4.7185814E1,7.940689E0,7.493744E0,0E0,5.197067E-1,0E0,0E0,1.6450348E0,0E0,4.6198273E0,1.9358467E1,1.197525E0,4.793129E-1,3.0736843E1,5.870037E0,1.84462E1,6.4723053E0,0E0,2.8677353E1,4.3368225E0,1.1360102E0,9.750569E1,5.2463646E1,6.530243E0,3.3377461E0,1.472052E1,7.099532E1,1.4516634E1,9.282665E-1,0E0,1.4537922E1,4.222641E0,6.508873E0,2.6260376E0,8.98221E0,0E0,0E0,0E0,0E0,0E0,0E0,0E0,0E0,0E0,0E0,0E0,0E0,0E0,0E0,0E0,0E0,0E0,0E0,0E0,0E0,0E0,0E0,0E0,0E0,0E0,0E0,0E0,0E0,0E0,0E0,0E0,0E0,0E0,0E0,0E0,0E0,0E0,0E0,0E0,0E0,0E0,0E0,0E0,0E0,0E0,0E0,0E0,0E0,0E0,0E0,0E0,0E0],"parents":[2147483647,0,0,1,1,2,2,3,3,4,4,5,5,6,6,7,7,8,8,9,9,10,10,11,11,12,12,13,13,14,14,15,15,16,16,17,17,18,18,19,19,20,20,21,21,22,22,23,23,24,24,25,25,26,26,27,27,28,28,29,29,30,30,32,32,35,35,37,37,38,38,39,39,40,40,41,41,42,42,43,43,44,44,46,46,47,47,48,48,49,49,50,50,51,51,52,52,53,53,54,54,55,55,56,56,58,58,59,59,60,60,61,61,62,62],"right_children":[2,4,6,8,10,12,14,16,18,20,22,24,26,28,30,32,34,36,38,40,42,44,46,48,50,52,54,56,58,60,62,-1,64,-1,-1,66,-1,68,70,72,74,76,78,80,82,-1,84,86,88,90,92,94,96,98,100,102,104,-1,106,108,110,112,114,-1,-1,-1,-1,-1,-1,-1,-1,-1,-1,-1,-1,-1,-1,-1,-1,-1,-1,-1,-1,-1,-1,-1,-1,-1,-1,-1,-1,-1,-1,-1,-1,-1,-1,-1,-1,-1,-1,-1,-1,-1,-1,-1,-1,-1,-1,-1,-1,-1,-1,-1,-1],"split_conditions":[-1.3332811E-1,-4.460094E-1,1.3059984E0,-5.164319E-1,-3.6791444E-1,2.9584732E1,2.2081308E0,4.13953E2,2.7081417E-3,2.7081417E-3,-9.9904484E-1,-4.181818E-1,1.0026206E2,2.7081417E-3,3.334822E0,-5.492958E-1,4.25E2,3.75E2,1.5946524E0,-3.6898395E-1,-3.6898395E-1,1.9483681E-1,0E0,7.887324E-1,-9.9904484E-1,3.1340623E0,-3.6791444E-1,3.6E2,1E0,1.0088587E0,1.07E2,-3.372242E-1,2.7081417E-3,1.1109257E-1,-2.7573118E-1,4.097761E0,1.7226937E-1,-7.1657754E-2,2.1700535E0,-1.5023474E-1,-1.7370892E-1,-4.4171122E-1,-2.6760563E-1,-2.8663102E-1,-2.2065727E-1,5.9026456E-1,1.0088587E0,-4.7058824E-1,9.3921167E-1,-1.9364892E0,5.492958E-1,-3.5872298E-1,3.7558687E-1,3.75E2,2.7081417E-3,-3.5872298E-1,3.71E2,3.8012597E-1,1.2067295E0,-5.368984E-1,-9.9904484E-1,6.9504066E0,1.0088587E0,-3.2143176E-1,-2.4177502E-1,-3.0430573E-1,-5.9867512E-2,-1.366223E-1,-2.86693E-1,3.0691534E-1,-2.9838562E-1,-3.5757726E-1,-1.6199127E-1,-2.5907195E-1,-3.80203E-1,-2.8382814E-1,3.5621694E-1,-3.6810288E-1,-1.446218E-1,-3.1187105E-1,-3.9713725E-2,-3.671055E-1,-2.0074315E-1,-1.1681623E-1,6.13757E-3,-3.374687E-1,-1.675984E-1,-4.784469E-2,-1.6129267E-1,6.532187E-2,-1.9499902E-1,-4.885927E-2,3.1355463E-2,3.5877842E-2,2.7454832E-1,1.3106559E-1,-3.707198E-1,-2.6105705E-1,2.5651324E-1,3.350137E-2,1.847642E-1,-2.8283013E-2,7.4093975E-2,1.7303967E-1,3.6475056E-1,7.979623E-2,2.1470124E-1,2.357451E-1,1.4294614E-1,1.3929317E-2,2.591744E-1,2.2744808E-1,1.592924E-1,-6.980913E-2,1.7667446E-1],"split_indices":[1,1,1,1,0,2,1,2,4,4,4,0,2,4,1,1,2,2,0,0,0,0,4,1,4,0,0,2,4,3,2,0,4,0,0,3,0,0,0,1,1,0,1,0,1,0,3,0,1,4,1,0,1,2,4,0,2,0,0,0,4,1,3,0,0,0,0,0,0,0,0,0,0,0,0,0,0,0,0,0,0,0,0,0,0,0,0,0,0,0,0,0,0,0,0,0,0,0,0,0,0,0,0,0,0,0,0,0,0,0,0,0,0,0,0],"split_type":[0,0,0,0,0,0,0,0,0,0,0,0,0,0,0,0,0,0,0,0,0,0,0,0,0,0,0,0,0,0,0,0,0,0,0,0,0,0,0,0,0,0,0,0,0,0,0,0,0,0,0,0,0,0,0,0,0,0,0,0,0,0,0,0,0,0,0,0,0,0,0,0,0,0,0,0,0,0,0,0,0,0,0,0,0,0,0,0,0,0,0,0,0,0,0,0,0,0,0,0,0,0,0,0,0,0,0,0,0,0,0,0,0,0,0],"sum_hessian":[1.1033062E4,2.4965852E3,8.536477E3,7.7918884E2,1.7173965E3,5.56291E3,2.9735667E3,5.2025714E2,2.589317E2,2.2603664E2,1.4913599E3,3.901685E3,1.661225E3,1.3317631E3,1.6418036E3,5.1582275E2,4.4343987E0,1.6085599E2,9.8075714E1,1.5027107E2,7.5765564E1,2.3706142E2,1.2542983E3,1.710551E2,3.7306301E3,4.3815445E2,1.2230704E3,8.732257E2,4.5853732E2,8.69251E2,7.725527E2,4.2433496E2,9.148776E1,1.2769605E0,3.1574383E0,1.5964261E2,1.2133889E0,8.0165436E1,1.7910282E1,8.062956E1,6.964152E1,2.8290554E1,4.747501E1,1.2642456E2,1.1063685E2,7.1041446E0,1.2471942E3,1.2874814E2,4.2306953E1,6.379761E2,3.0926538E3,4.351075E2,3.0469398E0,7.987621E1,1.1431942E3,8.5035956E2,2.2866125E1,6.994765E1,3.8858966E2,7.565609E2,1.1269006E2,7.040026E2,6.855005E1,6.02075E1,3.128026E1,1.5656494E2,3.0776558E0,3.8786213E1,4.137922E1,1.0998394E1,6.9118876E0,7.5211624E1,5.4179416E0,6.1242794E1,8.398721E0,1.909277E1,9.197784E0,2.7388287E1,2.0086723E1,2.8187317E1,9.823724E1,7.526393E1,3.537292E1,1.0432164E3,2.039778E2,1.0978432E2,1.8963827E1,1.2131232E1,3.0175722E1,1.7978023E2,4.581959E2,1.8972283E3,1.1954257E3,1.0906019E1,4.242015E2,1.5450869E0,1.5018529E0,7.536632E1,4.509896E0,6.586819E2,4.8451236E2,1.5108855E2,6.9927106E2,5.968206E0,1.6897919E1,2.9320956E2,9.538009E1,4.9011566E1,7.075493E2,1.0888565E1,1.018015E2,6.370676E2,6.6935005E1,1.72296E1,5.132045E1],"tree_param":{"num_deleted":"0","num_feature":"5","num_nodes":"115","size_leaf_vector":"1"}},{"base_weights":[-1.8301246E-3,-6.0786873E-1,1.1776465E-1,-1.0025862E0,-4.536298E-1,-3.8630262E-2,3.2900488E-1,-1.0602124E0,-8.641573E-1,-8.831581E-1,-3.8946587E-1,-1.3937499E-1,3.252056E-1,2.1194045E-1,4.8936915E-1,-3.1964487E-1,-4.8078573E-1,-9.8012847E-1,-6.423722E-1,-3.401856E-1,-7.415706E-1,-7.724474E-1,-3.2337263E-1,-4.4134068E-1,-5.0765928E-2,3.839111E-1,1.8974972E-1,1.3016774E-1,5.9319943E-1,4.019211E-1,5.702971E-1,9.518272E-2,-2.515152E-1,-1.0064869E0,-1.4305268E-1,-3.20537E-1,-4.9809295E-1,-1.8238042E-1,-8.362532E-1,-5.3073704E-1,-3.4227288E-1,3.7368363E-1,-3.5572687E-1,-1.0351955E0,-3.6026764E-1,3.9618543E-1,-7.4750885E-2,4.095408E-1,-3.0366522E-1,1.2073321E-1,1.0561639E0,3.6690027E-1,4.668509E-1,1.7274113E-1,4.4578046E-1,3.5597804E-1,6.0323834E-1,-3.036786E-1,-7.5352296E-2,1.5242273E-1,-2.160693E-1,8.943917E-2,-2.2725312E-1,-3.1142858E-1,3.484713E-1,-2.7800414E-1,-1.3404562E-1,-3.3486915E-1,-1.2891169E-1,-1.9294734E-1,2.1103624E-1,-1.7234136E-1,-5.6557924E-2,-2.0941354E-1,-3.2534227E-1,-1.4897364E-1,-2.1733861E-2,9.643702E-2,4.8551854E-1,-1.5338784E-1,-4.5729303E-3,-1.5138573E-2,1.6879682E-1,-1.5674973E-1,2.0543346E-1,3.922822E-2,-2.2943512E-1,2.024977E-2,3.3601418E-1,-2.7184062E-2,1.8430308E-1,3.2557797E-2,1.8285912E-1,3.4774795E-1,1.2714073E-1,1.4677958E-1,1.4191645E-3,2.380172E-1,1.725297E-1],"categories":[],"categories_nodes":[],"categories_segments":[],"categories_sizes":[],"default_left":[0,0,0,0,0,0,0,0,0,0,0,0,0,0,0,0,0,0,0,0,0,0,0,0,0,0,0,0,0,0,0,0,0,0,0,0,0,0,0,0,0,0,0,0,0,0,0,0,0,0,0,0,0,0,0,0,0,0,0,0,0,0,0,0,0,0,0,0,0,0,0,0,0,0,0,0,0,0,0,0,0,0,0,0,0,0,0,0,0,0,0,0,0,0,0,0,0,0,0],"id":5,"left_children":[1,3,5,7,9,11,13,15,17,19,21,23,25,27,29,-1,31,33,35,-1,37,39,41,43,45,-1,47,49,51,53,55,-1,-1,57,59,-1,61,63,65,67,-1,69,71,73,75,77,79,81,83,85,87,-1,89,91,93,95,97,-1,-1,-1,-1,-1,-1,-1,-1,-1,-1,-1,-1,-1,-1,-1,-1,-1,-1,-1,-1,-1,-1,-1,-1,-1,-1,-1,-1,-1,-1,-1,-1,-1,-1,-1,-1,-1,-1,-1,-1,-1,-1],"loss_changes":[7.5090625E2,1.0350098E2,2.8587454E2,2.9043884E0,3.354396E1,1.8231839E2,6.900098E1,5.069275E-1,3.1302338E0,4.805748E0,2.6874496E1,1.0419804E2,1.3921716E2,6.631536E1,1.0757904E1,0E0,1.6446261E0,1.9319305E0,2.731758E0,0E0,5.381775E0,1.3376228E1,2.0781876E1,4.216574E1,3.232443E1,0E0,1.0269086E2,1.5202642E1,2.9333633E1,7.457573E0,5.4609375E0,0E0,0E0,1.4289856E-1,1.883437E0,0E0,8.805377E0,2.0083557E1,2.724102E0,5.238762E0,0E0,1.4234272E1,3.1911858E1,9.9742126E-1,3.052452E1,1.350765E1,7.428713E1,4.6143364E1,6.352611E1,1.5534323E1,1.0340424E0,0E0,2.5925026E1,3.3569198E0,9.363464E0,5.12613E0,3.2645721E0,0E0,0E0,0E0,0E0,0E0,0E0,0E0,0E0,0E0,0E0,0E0,0E0,0E0,0E0,0E0,0E0,0E0,0E0,0E0,0E0,0E0,0E0,0E0,0E0,0E0,0E0,0E0,0E0,0E0,0E0,0E0,0E0,0E0,0E0,0E0,0E0,0E0,0E0,0E0,0E0,0E0,0E0],"parents":[2147483647,0,0,1,1,2,2,3,3,4,4,5,5,6,6,7,7,8,8,9,9,10,10,11,11,12,12,13,13,14,14,16,16,17,17,18,18,20,20,21,21,22,22,23,23,24,24,26,26,27,27,28,28,29,29,30,30,33,33,34,34,36,36,37,37,38,38,39,39,41,41,42,42,43,43,44,44,45,45,46,46,47,47,48,48,49,49,50,50,52,52,53,53,54,54,55,55,56,56],"right_children":[2,4,6,8,10,12,14,16,18,20,22,24,26,28,30,-1,32,34,36,-1,38,40,42,44,46,-1,48,50,52,54,56,-1,-1,58,60,-1,62,64,66,68,-1,70,72,74,76,78,80,82,84,86,88,-1,90,92,94,96,98,-1,-1,-1,-1,-1,-1,-1,-1,-1,-1,-1,-1,-1,-1,-1,-1,-1,-1,-1,-1,-1,-1,-1,-1,-1,-1,-1,-1,-1,-1,-1,-1,-1,-1,-1,-1,-1,-1,-1,-1,-1,-1],"split_conditions":[-2.2535211E-1,-4.8826292E-1,9.0711397E-1,-5.492958E-1,-3.6791444E-1,1.0088587E0,2.140845E0,4.13953E2,2.7081417E-3,-4.4171122E-1,-9.9904484E-1,-2.5561497E-1,2E0,1.0088587E0,3.0734906E0,-3.1964487E-1,4.25E2,4.097761E0,-3.1657755E-1,-3.401856E-1,-3.7489852E-1,2.745544E-1,-3.529412E-1,-4.983957E-1,-1E0,3.839111E-1,2.22E2,3.71E2,2E0,-9.9904484E-1,-3.6791444E-1,9.518272E-2,-2.515152E-1,3.69E2,2.04E2,-3.20537E-1,-1.2620321E-1,2.7081417E-3,-2.6760563E-1,-3.197861E-1,-3.4227288E-1,-4.1314554E-1,1.7754011E-1,-1.1737089E-1,2.7081417E-3,-1.9364892E0,-9.9904484E-1,2.025207E0,3.75E2,3.3E2,-9.9904484E-1,3.6690027E-1,2.025207E0,2.9459665E0,-7.0354734E-3,-3.6898395E-1,-2.8663102E-1,-3.036786E-1,-7.5352296E-2,1.5242273E-1,-2.160693E-1,8.943917E-2,-2.2725312E-1,-3.1142858E-1,3.484713E-1,-2.7800414E-1,-1.3404562E-1,-3.3486915E-1,-1.2891169E-1,-1.9294734E-1,2.1103624E-1,-1.7234136E-1,-5.6557924E-2,-2.0941354E-1,-3.2534227E-1,-1.4897364E-1,-2.1733861E-2,9.643702E-2,4.8551854E-1,-1.5338784E-1,-4.5729303E-3,-1.5138573E-2,1.6879682E-1,-1.5674973E-1,2.0543346E-1,3.922822E-2,-2.2943512E-1,2.024977E-2,3.3601418E-1,-2.7184062E-2,1.8430308E-1,3.2557797E-2,1.8285912E-1,3.4774795E-1,1.2714073E-1,1.4677958E-1,1.4191645E-3,2.380172E-1,1.725297E-1],"split_indices":[1,1,1,1,0,3,1,2,4,0,4,0,3,3,1,0,2,3,0,0,0,0,0,0,4,0,2,2,3,4,0,0,0,2,2,0,0,4,1,0,0,1,0,1,4,4,4,3,2,2,4,0,3,1,4,0,0,0,0,0,0,0,0,0,0,0,0,0,0,0,0,0,0,0,0,0,0,0,0,0,0,0,0,0,0,0,0,0,0,0,0,0,0,0,0,0,0,0,0],"split_type":[0,0,0,0,0,0,0,0,0,0,0,0,0,0,0,0,0,0,0,0,0,0,0,0,0,0,0,0,0,0,0,0,0,0,0,0,0,0,0,0,0,0,0,0,0,0,0,0,0,0,0,0,0,0,0,0,0,0,0,0,0,0,0,0,0,0,0,0,0,0,0,0,0,0,0,0,0,0,0,0,0,0,0,0,0,0,0,0,0,0,0,0,0,0,0,0,0,0,0],"sum_hessian":[1.0358334E4,1.706529E3,8.651805E3,4.779338E2,1.2285952E3,4.971728E3,3.6800771E3,3.3275397E2,1.4517982E2,1.5801851E2,1.0705767E3,3.8940872E3,1.0776406E3,2.1285654E3,1.5515116E3,3.2892322E2,3.8307552E0,9.3086E1,5.209383E1,5.4490543E1,1.0352796E2,1.5599074E2,9.1458594E2,8.825421E2,3.0115452E3,1.3287581E2,9.4476483E2,1.7537593E3,3.748062E2,7.4858374E2,8.0292786E2,1.2202504E0,2.6105049E0,9.004812E1,3.0378816E0,1.1557328E1,4.0536503E1,1.5414863E1,8.81131E1,9.567111E1,6.0319633E1,4.010004E1,8.744859E2,1.04598236E2,7.7794385E2,1.5258876E2,2.8589563E3,6.5373114E2,2.9103372E2,1.7371903E3,1.6568998E1,6.1177765E1,3.1362845E2,1.2104115E2,6.275426E2,1.0854286E2,6.94385E2,8.902724E1,1.0208818E0,1.4837513E0,1.5541302E0,9.924929E0,3.0611572E1,9.557216E0,5.8576474E0,7.03891E1,1.7724E1,1.2600557E1,8.307056E1,9.587336E0,3.0512703E1,3.7779282E2,4.9669308E2,1.5272629E1,8.932561E1,5.274298E2,2.5051408E2,1.4498694E2,7.60182E0,3.420592E2,2.5168972E3,1.6342511E2,4.90306E2,2.3866623E2,5.2367496E1,1.7185815E3,1.860873E1,1.130462E0,1.5438536E1,6.5698715E1,2.4792973E2,1.0661541E2,1.4425743E1,1.7209293E1,6.103333E2,7.839973E1,3.0143131E1,8.600561E1,6.083794E2],"tree_param":{"num_deleted":"0","num_feature":"5","num_nodes":"99","size_leaf_vector":"1"}},{"base_weights":[-2.2921464E-3,-5.00523E-1,8.852908E-2,-9.396784E-1,-3.5461316E-1,-7.056696E-2,2.0994927E-1,-1.0120406E0,-7.767708E-1,-7.9167414E-1,-2.974825E-1,-1.8645656E-1,1.277733E-1,1.58751E-1,4.7898573E-1,-3.054194E-1,-4.2443562E-1,-9.1153115E-1,-5.438828E-1,-3.2565087E-1,-6.4105743E-1,-6.507921E-1,-2.4198991E-1,-5.5374664E-1,-1.1630037E-1,3.782995E-1,-2.3625128E-2,5.0772168E-2,3.6035526E-1,3.5027483E-1,3.604794E-1,8.1703015E-2,-2.305092E-1,-9.423704E-1,-1.2687457E-1,-3.0174792E-1,-4.0531176E-1,-1.6704421E-1,-7.28915E-1,-4.2343125E-1,-1.0432312E0,4.6639797E-1,-2.522536E-1,-9.369635E-1,-4.6274754E-1,-8.393397E-2,-6.6717106E-1,4.1680355E-2,-7.4583143E-1,-5.915918E-3,1.7216772E-1,2.7837178E-1,4.833261E-1,-5.830347E-1,4.535563E-1,-2.847486E-1,-7.525834E-2,1.1594539E-1,-1.9667332E-1,6.0845543E-2,-1.9530405E-1,-2.932068E-1,2.246104E-1,-2.48375E-1,-1.0559299E-1,-3.1267762E-1,-9.932197E-2,-3.2242012E-1,-1.477838E-1,-5.129526E-2,-1.3881119E-1,-2.8355742E-1,-6.82927E-2,-2.7193433E-1,-1.1559091E-1,-3.175231E-2,2.9826885E-1,-3.2156903E-1,1.7219642E-1,1.1128288E-3,2.6588857E-1,-2.7222624E-1,8.513169E-2,1.2410133E-3,-4.0657133E-1,3.5859683E-1,3.863558E-2,7.366853E-2,1.8174338E-1,1.53918E-1,-1.21375166E-1,5.077971E-2,-3.1237727E-1,3.9763808E-1,1.0699118E-1],"categories":[],"categories_nodes":[],"categories_segments":[],"categories_sizes":[],"default_left":[0,0,0,0,0,0,0,0,0,0,0,0,0,0,0,0,0,0,0,0,0,0,0,0,0,0,0,0,0,0,0,0,0,0,0,0,0,0,0,0,0,0,0,0,0,0,0,0,0,0,0,0,0,0,0,0,0,0,0,0,0,0,0,0,0,0,0,0,0,0,0,0,0,0,0,0,0,0,0,0,0,0,0,0,0,0,0,0,0,0,0,0,0,0,0],"id":6,"left_children":[1,3,5,7,9,11,13,15,17,19,21,23,25,27,29,-1,31,33,35,-1,37,39,41,43,45,-1,47,49,51,-1,53,-1,-1,55,57,-1,59,61,63,65,67,-1,69,71,73,75,77,79,81,83,85,87,89,91,93,-1,-1,-1,-1,-1,-1,-1,-1,-1,-1,-1,-1,-1,-1,-1,-1,-1,-1,-1,-1,-1,-1,-1,-1,-1,-1,-1,-1,-1,-1,-1,-1,-1,-1,-1,-1,-1,-1,-1,-1],"loss_changes":[4.4413983E2,9.663687E1,1.6038739E2,3.6558228E0,2.8168137E1,8.263875E1,6.478308E1,4.7976685E-1,3.2764893E0,5.0972443E0,1.9598137E1,5.8403778E1,2.2755634E2,8.613056E1,6.0971115E1,0E0,1.2467015E0,1.6870575E0,2.571249E0,0E0,3.5839958E0,1.1709663E1,1.648016E1,1.2247322E1,3.39348E1,0E0,5.5252815E1,1.7743908E1,1.3779388E1,0E0,5.675934E1,0E0,0E0,9.853363E-2,1.3333144E0,0E0,5.731248E0,1.2019078E1,2.498886E0,4.6795053E0,3.2528305E-1,0E0,1.47723465E1,1.863823E-1,9.816208E0,4.2661785E1,5.3687027E1,3.4463123E1,1.6420105E1,2.3858583E1,3.627704E1,8.772743E0,1.4746765E1,2.023938E1,4.9055733E1,0E0,0E0,0E0,0E0,0E0,0E0,0E0,0E0,0E0,0E0,0E0,0E0,0E0,0E0,0E0,0E0,0E0,0E0,0E0,0E0,0E0,0E0,0E0,0E0,0E0,0E0,0E0,0E0,0E0,0E0,0E0,0E0,0E0,0E0,0E0,0E0,0E0,0E0,0E0,0E0],"parents":[2147483647,0,0,1,1,2,2,3,3,4,4,5,5,6,6,7,7,8,8,9,9,10,10,11,11,12,12,13,13,14,14,16,16,17,17,18,18,20,20,21,21,22,22,23,23,24,24,26,26,27,27,28,28,30,30,33,33,34,34,36,36,37,37,38,38,39,39,40,40,42,42,43,43,44,44,45,45,46,46,47,47,48,48,49,49,50,50,51,51,52,52,53,53,54,54],"right_children":[2,4,6,8,10,12,14,16,18,20,22,24,26,28,30,-1,32,34,36,-1,38,40,42,44,46,-1,48,50,52,-1,54,-1,-1,56,58,-1,60,62,64,66,68,-1,70,72,74,76,78,80,82,84,86,88,90,92,94,-1,-1,-1,-1,-1,-1,-1,-1,-1,-1,-1,-1,-1,-1,-1,-1,-1,-1,-1,-1,-1,-1,-1,-1,-1,-1,-1,-1,-1,-1,-1,-1,-1,-1,-1,-1,-1,-1,-1,-1],"split_conditions":[-2.2535211E-1,-4.8826292E-1,5.117371E-1,-5.492958E-1,-3.6791444E-1,2.7081417E-3,1.0088587E0,4.13953E2,2.7081417E-3,-4.4171122E-1,-9.9904484E-1,-3.1229946E-1,1E0,2.0234742E0,2E0,-3.054194E-1,4.25E2,4.097761E0,-3.1657755E-1,-3.2565087E-1,-3.7489852E-1,2.745544E-1,0E0,-4.7058824E-1,3.06E2,3.782995E-1,1.86E2,2.7081417E-3,3.334822E0,3.5027483E-1,-9.9904484E-1,8.1703015E-2,-2.305092E-1,3.68E2,2.04E2,-3.0174792E-1,-1.2620321E-1,2.7081417E-3,-2.6760563E-1,-3.197861E-1,2.824599E0,4.6639797E-1,8.042781E-1,3.68E2,-1.2676056E-1,2.770817E2,3.75E2,1.8155779E2,3.9E2,3.0481284E0,1E0,2.2192514E0,3E0,-1E0,0E0,-2.847486E-1,-7.525834E-2,1.1594539E-1,-1.9667332E-1,6.0845543E-2,-1.9530405E-1,-2.932068E-1,2.246104E-1,-2.48375E-1,-1.0559299E-1,-3.1267762E-1,-9.932197E-2,-3.2242012E-1,-1.477838E-1,-5.129526E-2,-1.3881119E-1,-2.8355742E-1,-6.82927E-2,-2.7193433E-1,-1.1559091E-1,-3.175231E-2,2.9826885E-1,-3.2156903E-1,1.7219642E-1,1.1128288E-3,2.6588857E-1,-2.7222624E-1,8.513169E-2,1.2410133E-3,-4.0657133E-1,3.5859683E-1,3.863558E-2,7.366853E-2,1.8174338E-1,1.53918E-1,-1.21375166E-1,5.077971E-2,-3.1237727E-1,3.9763808E-1,1.0699118E-1],"split_indices":[1,1,1,1,0,4,3,2,4,0,4,0,4,1,3,0,2,3,0,0,0,0,4,0,2,0,2,4,1,0,4,0,0,2,2,0,0,4,1,0,0,0,0,2,1,2,2,2,2,0,4,0,2,4,4,0,0,0,0,0,0,0,0,0,0,0,0,0,0,0,0,0,0,0,0,0,0,0,0,0,0,0,0,0,0,0,0,0,0,0,0,0,0,0,0],"split_type":[0,0,0,0,0,0,0,0,0,0,0,0,0,0,0,0,0,0,0,0,0,0,0,0,0,0,0,0,0,0,0,0,0,0,0,0,0,0,0,0,0,0,0,0,0,0,0,0,0,0,0,0,0,0,0,0,0,0,0,0,0,0,0,0,0,0,0,0,0,0,0,0,0,0,0,0,0,0,0,0,0,0,0,0,0,0,0,0,0,0,0,0,0,0,0],"sum_hessian":[9.813279E3,1.5123356E3,8.300944E3,3.7580576E2,1.1365298E3,3.5932075E3,4.7077363E3,2.566094E2,1.19196335E2,1.2990138E2,1.0066284E3,2.2680518E3,1.3251558E3,3.9564116E3,7.5132465E2,2.5328027E2,3.3291342E0,7.365939E1,4.553694E1,4.191838E1,8.7983E1,1.3518785E2,8.7144055E2,3.626372E2,1.9054147E3,1.5531158E2,1.1698441E3,2.5772786E3,1.3791332E3,1.0901656E2,6.423081E2,1.1689827E0,2.1601515E0,7.068045E1,2.9789448E0,9.063633E0,3.647331E1,1.4211228E1,7.3771774E1,8.691332E1,4.8274532E1,4.09526E0,8.6734534E2,6.780388E1,2.948333E2,1.8007632E3,1.04651436E2,1.0736974E3,9.614677E1,1.7575204E3,8.197581E2,8.2942633E2,5.497068E2,5.720103E1,5.8510706E2,6.9624054E1,1.0564E0,1.6478822E0,1.3310626E0,1.0545914E1,2.5927395E1,7.5039563E0,6.707272E0,5.747875E1,1.6293028E1,9.951328E0,7.696199E1,4.4761726E1,3.5128078E0,6.2702155E2,2.4032378E2,6.6697685E1,1.1061994E0,4.2222866E1,2.5261046E2,1.7657863E3,3.4976944E1,7.9020325E1,2.5631111E1,1.0284656E3,4.523182E1,8.32067E1,1.2940062E1,1.745513E3,1.2007372E1,3.2264385E1,7.874937E2,7.5547626E2,7.395008E1,5.3230347E2,1.7403315E1,2.1891172E1,3.5309856E1,5.726484E1,5.278422E2],"tree_param":{"num_deleted":"0","num_feature":"5","num_nodes":"95","size_leaf_vector":"1"}},{"base_weights":[-1.8996409E-3,-6.978671E-1,4.0130313E-2,-9.268122E-1,-4.9679753E-1,-9.984114E-2,1.475095E-1,-9.880966E-1,-7.9951626E-1,-6.519858E-1,-2.7376857E-1,-9.020622E-1,-7.962489E-2,7.915928E-2,2.8425258E-1,-2.9825884E-1,-4.4808972E-1,-8.960099E-1,-6.1268187E-1,-9.5523375E-1,-4.9625635E-1,-3.8009465E-1,2.8898847E-1,-9.126178E-1,-3.2666698E-3,-1.651212E-1,6.148847E-2,6.4907596E-2,8.4376395E-1,3.499992E-1,1.5528744E-1,2.3467885E-2,-2.0438562E-1,-2.7689642E-1,-1.9453076E-1,-3.0680856E-1,-3.4782326E-1,-3.4867218E-1,-2.9560432E-1,-1.6363284E-1,-8.561514E-1,-2.2566733E-1,-8.0787766E-1,8.9395463E-1,-9.439658E-1,-8.2617384E-1,-3.6540127E-1,-1.38843E-1,-6.979771E-1,1.2464625E0,-4.4589184E-2,8.037922E-3,2.6748052E-1,9.489966E-1,1.1945712E-1,2.0186111E-1,-5.1478744E-1,-1.8633968E-1,9.467212E-2,3.0033273E-1,-1.690132E-1,-1.6777082E-1,-2.8919226E-2,-2.0116667E-1,2.5608754E-2,-3.2242936E-1,-2.0721783E-1,-1.3017608E-1,1.8709864E-1,-2.6699564E-1,-2.5012776E-2,4.6559295E-1,5.3289276E-2,-3.178504E-1,-4.270195E-2,-3.0928013E-1,-2.1335697E-1,-4.6891328E-2,2.4330501E-1,-3.0269712E-1,1.1401509E-1,4.5946392E-1,3.541208E-1,4.204104E-3,-1.188698E-1,-8.98533E-2,1.5360092E-2,9.232585E-2,-5.5817615E-2,4.5295816E-2,2.884906E-1,-4.9113992E-1,2.1689212E-1,5.260723E-2,2.9838252E-1,-8.012959E-2,-3.962695E-1],"categories":[],"categories_nodes":[],"categories_segments":[],"categories_sizes":[],"default_left":[0,0,0,0,0,0,0,0,0,0,0,0,0,0,0,0,0,0,0,0,0,0,0,0,0,0,0,0,0,0,0,0,0,0,0,0,0,0,0,0,0,0,0,0,0,0,0,0,0,0,0,0,0,0,0,0,0,0,0,0,0,0,0,0,0,0,0,0,0,0,0,0,0,0,0,0,0,0,0,0,0,0,0,0,0,0,0,0,0,0,0,0,0,0,0,0,0],"id":7,"left_children":[1,3,5,7,9,11,13,15,17,19,21,23,25,27,29,-1,31,33,35,37,39,41,43,45,-1,47,49,51,53,-1,55,-1,-1,-1,57,-1,59,61,-1,63,65,67,69,71,73,75,-1,77,79,81,83,85,87,89,91,93,95,-1,-1,-1,-1,-1,-1,-1,-1,-1,-1,-1,-1,-1,-1,-1,-1,-1,-1,-1,-1,-1,-1,-1,-1,-1,-1,-1,-1,-1,-1,-1,-1,-1,-1,-1,-1,-1,-1,-1,-1],"loss_changes":[2.7482516E2,2.4171051E1,1.3318413E2,1.1528015E0,9.756195E0,6.2318024E1,4.684281E1,9.423828E-2,1.0045586E0,7.4850082E0,7.2601223E0,8.786926E-1,4.5295E1,3.639067E1,1.8994316E2,0E0,5.013692E-1,8.5489273E-1,3.1747313E0,6.8120956E-1,1.3438976E1,6.485958E0,1.5432051E1,1.4579697E0,0E0,3.263588E1,1.7815498E2,3.7835587E1,4.544964E0,0E0,4.5629974E1,0E0,0E0,0E0,9.1225976E-1,0E0,6.7476554E0,1.6925967E-1,0E0,7.65407E0,1.219429E0,1.36343155E1,1.4954376E0,6.150749E0,4.9046993E-1,1.0529175E0,0E0,3.709711E1,3.7135654E1,3.852234E-1,2.682431E1,3.4071613E1,1.3206631E1,3.9157104E-1,1.0615613E1,2.8499226E1,1.8632605E1,0E0,0E0,0E0,0E0,0E0,0E0,0E0,0E0,0E0,0E0,0E0,0E0,0E0,0E0,0E0,0E0,0E0,0E0,0E0,0E0,0E0,0E0,0E0,0E0,0E0,0E0,0E0,0E0,0E0,0E0,0E0,0E0,0E0,0E0,0E0,0E0,0E0,0E0,0E0,0E0],"parents":[2147483647,0,0,1,1,2,2,3,3,4,4,5,5,6,6,7,7,8,8,9,9,10,10,11,11,12,12,13,13,14,14,16,16,17,17,18,18,19,19,20,20,21,21,22,22,23,23,25,25,26,26,27,27,28,28,30,30,34,34,36,36,37,37,39,39,40,40,41,41,42,42,43,43,44,44,45,45,47,47,48,48,49,49,50,50,51,51,52,52,53,53,54,54,55,55,56,56],"right_children":[2,4,6,8,10,12,14,16,18,20,22,24,26,28,30,-1,32,34,36,38,40,42,44,46,-1,48,50,52,54,-1,56,-1,-1,-1,58,-1,60,62,-1,64,66,68,70,72,74,76,-1,78,80,82,84,86,88,90,92,94,96,-1,-1,-1,-1,-1,-1,-1,-1,-1,-1,-1,-1,-1,-1,-1,-1,-1,-1,-1,-1,-1,-1,-1,-1,-1,-1,-1,-1,-1,-1,-1,-1,-1,-1,-1,-1,-1,-1,-1,-1],"split_conditions":[-4.1314554E-1,-5.164319E-1,3.8497654E-1,-5.8215964E-1,2.7081417E-3,-4.4171122E-1,2.7081417E-3,4.13953E2,2.7081417E-3,-1.764706E-1,1.7369548E0,8.145351E0,2.7081417E-3,3.71E2,1E0,-2.9825884E-1,4.4427856E2,4.097761E0,-1.764706E-1,-5.070422E-1,4.0962568E-1,4.7379678E-1,2.4085562E0,3E0,-3.2666698E-3,3.06E2,1E0,2.4106405E0,3E0,3.499992E-1,1.87E2,2.3467885E-2,-2.0438562E-1,-2.7689642E-1,1.79E2,-3.0680856E-1,-1.2620321E-1,-9.9904484E-1,-2.9560432E-1,-4.6948355E-1,-4.600939E-1,2.3850267E-1,1.5946524E0,-4.600939E-1,3E0,-1.7370892E-1,-3.6540127E-1,2.770817E2,3.75E2,-2.112676E-1,1.06E2,-3.6791444E-1,9.3362045E1,-1.8607569E0,3.85E2,1.81E2,4E0,-1.8633968E-1,9.467212E-2,3.0033273E-1,-1.690132E-1,-1.6777082E-1,-2.8919226E-2,-2.0116667E-1,2.5608754E-2,-3.2242936E-1,-2.0721783E-1,-1.3017608E-1,1.8709864E-1,-2.6699564E-1,-2.5012776E-2,4.6559295E-1,5.3289276E-2,-3.178504E-1,-4.270195E-2,-3.0928013E-1,-2.1335697E-1,-4.6891328E-2,2.4330501E-1,-3.0269712E-1,1.1401509E-1,4.5946392E-1,3.541208E-1,4.204104E-3,-1.188698E-1,-8.98533E-2,1.5360092E-2,9.232585E-2,-5.5817615E-2,4.5295816E-2,2.884906E-1,-4.9113992E-1,2.1689212E-1,5.260723E-2,2.9838252E-1,-8.012959E-2,-3.962695E-1],"split_indices":[1,1,1,1,4,0,4,2,4,0,0,3,4,2,4,0,2,3,0,1,0,0,0,2,0,2,4,1,3,0,2,0,0,0,2,0,0,4,0,1,1,0,0,1,2,1,0,2,2,1,2,0,2,4,2,2,3,0,0,0,0,0,0,0,0,0,0,0,0,0,0,0,0,0,0,0,0,0,0,0,0,0,0,0,0,0,0,0,0,0,0,0,0,0,0,0,0],"split_type":[0,0,0,0,0,0,0,0,0,0,0,0,0,0,0,0,0,0,0,0,0,0,0,0,0,0,0,0,0,0,0,0,0,0,0,0,0,0,0,0,0,0,0,0,0,0,0,0,0,0,0,0,0,0,0,0,0,0,0,0,0,0,0,0,0,0,0,0,0,0,0,0,0,0,0,0,0,0,0,0,0,0,0,0,0,0,0,0,0,0,0,0,0,0,0,0,0],"sum_hessian":[9.393299E3,5.3407245E2,8.859227E3,2.4803806E2,2.860344E2,3.8459739E3,5.013253E3,1.6286655E2,8.51715E1,1.6753595E2,1.1849844E2,9.346528E1,3.7525085E3,3.3435686E3,1.6696842E3,1.6021579E2,2.6507616E0,5.3661434E1,3.1510069E1,5.5102463E1,1.1243349E2,9.994049E1,1.855795E1,9.234739E1,1.1178895E0,2.3366394E3,1.4158693E3,3.2834521E3,6.011631E1,2.1188289E2,1.4578013E3,1.0179112E0,1.6328504E0,5.1370033E1,2.2914035E0,1.1243432E1,2.0266636E1,3.2012205E0,5.190124E1,5.9186546E1,5.3246944E1,7.455432E1,2.5386171E1,1.26339E1,5.9240494E0,7.4861984E1,1.7485413E1,2.2280232E3,1.0861614E2,1.1544984E2,1.3004194E3,2.5645332E3,7.189191E2,5.221929E1,7.8970203E0,1.3637147E3,9.40865E1,1.1293057E0,1.1620977E0,2.290209E0,1.7976427E1,1.0816425E0,2.1195781E0,1.8938051E1,4.0248497E1,2.05684E1,3.2678543E1,6.026631E1,1.4288009E1,2.2596859E1,2.7893121E0,5.9768877E0,6.657012E0,4.896626E0,1.0274231E0,2.4056692E1,5.0805286E1,2.1886248E3,3.9398384E1,8.434614E1,2.4270002E1,1.7545828E1,9.790401E1,1.1154801E3,1.8493932E2,3.1488867E2,2.2496445E3,6.605837E2,5.8335495E1,1.0159847E0,5.1203304E1,1.5814396E0,6.315581E0,1.3207788E3,4.293601E1,7.29905E1,2.1096006E1],"tree_param":{"num_deleted":"0","num_feature":"5","num_nodes":"97","size_leaf_vector":"1"}},{"base_weights":[-1.4619575E-3,-5.143296E-1,3.66278E-2,-8.7310797E-1,-3.514639E-1,-3.96839E-2,1.4676613E-1,-9.498665E-1,-7.2368187E-1,-5.0183463E-1,-1.4945918E-1,-8.974363E-1,-2.3477029E-2,9.0983525E-2,2.6440746E-1,-2.8717452E-1,-3.9965472E-1,-9.5687836E-1,-6.1918557E-1,-8.432751E-1,-3.602702E-1,-9.0650834E-2,-7.152818E-1,-9.160751E-1,1.06038615E-1,-7.38913E-2,1.8699093E-1,5.9942283E-2,3.308038E-1,3.329838E-1,1.7021741E-1,2.002679E-2,-1.8770576E-1,-2.995338E-1,-6.457528E-2,-4.069692E-1,-2.548753E-1,-2.7612555E-1,-1.6044751E-1,-7.998728E-1,-2.6817334E-1,-1.5346618E-1,6.867639E-1,-1.0172749E0,6.8824613E-1,-9.324369E-1,5.7857633E-2,-9.6415654E-2,2.3645696E-1,3.616426E-1,8.0197476E-2,4.5533832E-2,6.431811E-1,3.9751816E-1,-4.0010592E-1,1.8369879E-1,-1.8735734E0,-1.8449202E-1,4.1656044E-1,2.3493198E-1,-2.63895E-1,-2.5675437E-1,1.1658349E-1,-8.667633E-2,3.2705763E-1,-2.7650762E-2,-3.0647865E-1,4.9914065E-1,-3.65468E-2,-3.20123E-1,-5.481214E-2,-5.4098245E-2,3.550246E-1,-2.3667495E-1,-3.4437427E-1,-7.1261816E-2,-1.783391E-2,1.0220583E-2,1.0961888E-1,-2.0185821E-1,4.7634784E-2,1.500448E-2,-4.338008E-1,2.4180922E-1,3.0057224E-2,1.2660101E-1,-5.411204E-2,-3.5674208E-1,1.300919E-2,6.165635E-2,-2.0092632E-1,-6.3177323E-1,-1.07768826E-1],"categories":[],"categories_nodes":[],"categories_segments":[],"categories_sizes":[],"default_left":[0,0,0,0,0,0,0,0,0,0,0,0,0,0,0,0,0,0,0,0,0,0,0,0,0,0,0,0,0,0,0,0,0,0,0,0,0,0,0,0,0,0,0,0,0,0,0,0,0,0,0,0,0,0,0,0,0,0,0,0,0,0,0,0,0,0,0,0,0,0,0,0,0,0,0,0,0,0,0,0,0,0,0,0,0,0,0,0,0,0,0,0,0],"id":8,"left_children":[1,3,5,7,9,11,13,15,17,19,21,23,25,27,29,-1,31,33,35,37,39,41,43,45,-1,47,49,51,53,-1,55,-1,-1,-1,-1,57,-1,-1,59,61,63,65,67,69,71,73,-1,75,77,-1,79,81,83,85,87,89,91,-1,-1,-1,-1,-1,-1,-1,-1,-1,-1,-1,-1,-1,-1,-1,-1,-1,-1,-1,-1,-1,-1,-1,-1,-1,-1,-1,-1,-1,-1,-1,-1,-1,-1,-1,-1],"loss_changes":[1.7759505E2,3.6418243E1,7.113309E1,1.5555725E0,1.3106422E1,6.948329E1,2.2707047E1,1.2915802E-1,1.1270142E0,1.1700073E1,6.1444483E0,2.4848862E0,5.2091537E1,1.748345E1,8.850327E1,0E0,3.9859742E-1,4.0169334E-1,2.1753254E0,3.6471481E0,6.963749E0,8.415951E0,8.085192E0,1.8419647E0,0E0,2.770715E1,1.030963E2,1.7475283E1,1.3287458E1,0E0,2.7985592E1,0E0,0E0,0E0,0E0,1.1594755E1,0E0,0E0,6.4732404E0,2.3421001E0,4.488759E0,8.328285E0,1.0398168E1,4.1775322E-1,1.796827E0,1.89151E0,0E0,1.9253517E1,6.9883394E0,0E0,5.098789E1,1.3666018E1,4.353079E0,3.5741806E0,8.105664E0,1.8716236E1,1.5879097E0,0E0,0E0,0E0,0E0,0E0,0E0,0E0,0E0,0E0,0E0,0E0,0E0,0E0,0E0,0E0,0E0,0E0,0E0,0E0,0E0,0E0,0E0,0E0,0E0,0E0,0E0,0E0,0E0,0E0,0E0,0E0,0E0,0E0,0E0,0E0,0E0],"parents":[2147483647,0,0,1,1,2,2,3,3,4,4,5,5,6,6,7,7,8,8,9,9,10,10,11,11,12,12,13,13,14,14,16,16,17,17,18,18,19,19,20,20,21,21,22,22,23,23,25,25,26,26,27,27,28,28,30,30,35,35,38,38,39,39,40,40,41,41,42,42,43,43,44,44,45,45,47,47,48,48,50,50,51,51,52,52,53,53,54,54,55,55,56,56],"right_children":[2,4,6,8,10,12,14,16,18,20,22,24,26,28,30,-1,32,34,36,38,40,42,44,46,-1,48,50,52,54,-1,56,-1,-1,-1,-1,58,-1,-1,60,62,64,66,68,70,72,74,-1,76,78,-1,80,82,84,86,88,90,92,-1,-1,-1,-1,-1,-1,-1,-1,-1,-1,-1,-1,-1,-1,-1,-1,-1,-1,-1,-1,-1,-1,-1,-1,-1,-1,-1,-1,-1,-1,-1,-1,-1,-1,-1,-1],"split_conditions":[-3.6150235E-1,-5.164319E-1,8.2286257E-1,-5.8215964E-1,2.7081417E-3,-4.7058824E-1,2.7081417E-3,4.13953E2,-2.684492E-1,-1.764706E-1,1.1546024E2,9.1893015E0,1.0088587E0,3.739568E0,1E0,-2.8717452E-1,4.4427856E2,2.025207E0,3.7540108E-1,1.8155779E2,-4.6948355E-1,9.03614E1,5.089271E0,3.75E2,1.06038615E-1,2.3149097E0,2E0,3.6E2,9.3362045E1,3.329838E-1,6.9504066E0,2.002679E-2,-1.8770576E-1,-2.995338E-1,-6.457528E-2,2.6631016E-1,-2.548753E-1,-2.7612555E-1,2.88E2,4.097761E0,3.85E2,2.1700535E0,9.4E1,3.63E2,4.812834E-2,2.9107982E-1,5.7857633E-2,-2.5989306E-1,5.6338027E-2,3.616426E-1,-9.9904484E-1,3.2101312E0,3E0,2.2192514E0,2.0905942E2,3.3E2,1.6663102E0,-1.8449202E-1,4.1656044E-1,2.3493198E-1,-2.63895E-1,-2.5675437E-1,1.1658349E-1,-8.667633E-2,3.2705763E-1,-2.7650762E-2,-3.0647865E-1,4.9914065E-1,-3.65468E-2,-3.20123E-1,-5.481214E-2,-5.4098245E-2,3.550246E-1,-2.3667495E-1,-3.4437427E-1,-7.1261816E-2,-1.783391E-2,1.0220583E-2,1.0961888E-1,-2.0185821E-1,4.7634784E-2,1.500448E-2,-4.338008E-1,2.4180922E-1,3.0057224E-2,1.2660101E-1,-5.411204E-2,-3.5674208E-1,1.300919E-2,6.165635E-2,-2.0092632E-1,-6.3177323E-1,-1.07768826E-1],"split_indices":[1,1,1,1,4,0,4,2,0,0,2,3,3,1,4,0,2,3,0,2,1,2,3,2,0,0,3,2,2,0,1,0,0,0,0,0,0,0,2,3,2,0,2,2,0,1,0,0,1,0,4,0,3,0,2,2,0,0,0,0,0,0,0,0,0,0,0,0,0,0,0,0,0,0,0,0,0,0,0,0,0,0,0,0,0,0,0,0,0,0,0,0,0],"split_type":[0,0,0,0,0,0,0,0,0,0,0,0,0,0,0,0,0,0,0,0,0,0,0,0,0,0,0,0,0,0,0,0,0,0,0,0,0,0,0,0,0,0,0,0,0,0,0,0,0,0,0,0,0,0,0,0,0,0,0,0,0,0,0,0,0,0,0,0,0,0,0,0,0,0,0,0,0,0,0,0,0,0,0,0,0,0,0,0,0,0,0,0,0],"sum_hessian":[9.089155E3,6.275031E2,8.461651E3,1.9455502E2,4.329481E2,4.99878E3,3.462872E3,1.2499152E2,6.956349E1,2.4734338E2,1.856047E2,9.169003E1,4.90709E3,2.350226E3,1.1126459E3,1.226068E2,2.3847268E0,1.900173E1,5.0561764E1,7.1041336E1,1.7630205E2,1.691812E2,1.642351E1,9.060762E1,1.0824182E0,3.959341E3,9.4774866E2,2.0819924E3,2.682336E2,1.1044082E2,1.002205E3,1.0084567E0,1.37627E0,1.7665312E1,1.3364177E0,2.7759413E1,2.2802353E1,6.351742E1,7.5239115E0,2.920652E1,1.4709552E2,1.5727586E2,1.1905341E1,1.3741905E1,2.6816049E0,8.944703E1,1.1605897E0,3.6920686E3,2.6727243E2,8.8968834E1,8.587798E2,2.0328506E3,4.9141895E1,2.4621619E2,2.2017435E1,9.965417E2,5.663329E0,2.5466663E1,2.2927496E0,3.2159317E0,4.30798E0,2.816012E1,1.046399E0,1.4565804E2,1.4374862E0,1.4793651E2,9.339348E0,4.912165E0,6.9931765E0,1.2705145E1,1.0367604E0,1.2045449E0,1.4770598E0,5.6485588E1,3.296144E1,7.652888E2,2.9267798E3,1.04503586E2,1.6276884E2,8.043478E1,7.7834503E2,2.0277251E3,5.125532E0,3.743134E1,1.1710556E1,2.3646686E2,9.749331E0,7.3171344E0,1.47003E1,9.7243616E2,2.410551E1,4.5713334E0,1.091996E0],"tree_param":{"num_deleted":"0","num_feature":"5","num_nodes":"93","size_leaf_vector":"1"}},{"base_weights":[-1.3988061E-3,-5.268814E-1,2.274769E-2,-8.6321455E-1,-3.575077E-1,-1.662026E-2,1.6808689E-1,-9.3962157E-1,-7.329358E-1,-6.797526E-1,-2.4997234E-1,-5.1010508E-2,2.4262476E-1,-3.4573486E-1,1.8296182E-1,-2.8789186E-1,-3.162953E-2,-2.5217567E-2,-9.1580117E-1,-8.329296E-1,-4.731895E-1,-6.889138E-2,-4.6293896E-1,-5.816797E-1,-4.2090185E-2,1.402855E0,4.434174E-2,-1.5079402E0,-1.3830267E-1,3.4455344E-1,1.746213E-1,-6.7409116E-1,1.1533042E0,-9.682528E-2,-2.8060487E-1,-2.5454456E-1,-7.898109E-2,-7.173219E-1,-2.2694692E-1,-2.4905033E-1,5.991194E-1,-7.424735E-1,-1.7842624E-1,-8.630763E-1,-2.4974138E-2,-2.9146563E-2,-2.6417938E-1,4.9334767E-1,3.6858118E-1,2.4658349E-1,-3.171264E-1,-1.8385348E-1,-2.198975E0,-7.8037363E-1,1.0703176E-2,1.2967192E-1,2.6927838E-1,-2.662614E-1,7.8902185E-2,-1.07533045E-1,7.333704E-1,-6.477047E-2,-2.948285E-1,1.1000207E-1,-2.3923272E-1,3.1204304E-2,-1.53653E-1,-2.3594101E-1,2.4388333E-1,-3.0387816E-1,-1.5982401E-1,-1.938701E-1,2.5030388E-2,-2.6386198E-1,6.92174E-3,7.67519E-2,-1.9552466E-1,-1.5087668E-2,3.4700382E-1,7.521957E-2,-1.2738807E-1,1.5320645E-2,2.343908E-1,-1.2530276E-1,1.6713414E-1,-2.4699199E-1,1.08933434E-1,-7.6505303E-1,-1.2474697E-1,7.776746E-2,-3.812133E-1,1.0071433E-1,-1.2975512E-1,5.0491218E-2,-6.349414E-2,3.1525394E-1,6.0884144E-2],"categories":[],"categories_nodes":[],"categories_segments":[],"categories_sizes":[],"default_left":[0,0,0,0,0,0,0,0,0,0,0,0,0,0,0,0,0,0,0,0,0,0,0,0,0,0,0,0,0,0,0,0,0,0,0,0,0,0,0,0,0,0,0,0,0,0,0,0,0,0,0,0,0,0,0,0,0,0,0,0,0,0,0,0,0,0,0,0,0,0,0,0,0,0,0,0,0,0,0,0,0,0,0,0,0,0,0,0,0,0,0,0,0,0,0,0,0],"id":9,"left_children":[1,3,5,7,9,11,13,15,17,19,21,23,25,27,29,-1,-1,31,33,35,37,39,41,43,45,47,49,51,53,-1,55,57,59,-1,-1,-1,-1,61,63,65,67,69,71,73,75,77,79,-1,-1,81,83,85,87,89,91,93,95,-1,-1,-1,-1,-1,-1,-1,-1,-1,-1,-1,-1,-1,-1,-1,-1,-1,-1,-1,-1,-1,-1,-1,-1,-1,-1,-1,-1,-1,-1,-1,-1,-1,-1,-1,-1,-1,-1,-1,-1],"loss_changes":[1.1222674E2,2.1826614E1,4.8386703E1,5.997391E-1,8.844452E0,5.9343086E1,1.3839264E1,1.2019806E0,6.7577267E0,1.646904E0,7.550906E0,2.7791956E1,1.7928201E2,1.2100288E1,1.3911556E1,0E0,0E0,9.790861E0,1.8048859E-1,9.3120575E-2,1.6275892E0,1.3079918E1,7.039936E0,1.51842575E1,1.6608116E1,2.769104E0,4.8825645E1,6.578621E0,4.2586584E0,0E0,7.362156E0,1.8801162E0,9.766172E0,0E0,0E0,0E0,0E0,1.7167144E0,5.8090863E0,7.980335E0,7.4879456E0,2.0226707E0,5.690191E0,9.604988E-1,6.084099E0,1.370419E2,2.6394735E1,0E0,0E0,4.4721283E1,2.1301022E1,1.5959707E0,2.0228043E0,4.6018863E0,5.481475E0,1.5604248E1,2.8757858E1,0E0,0E0,0E0,0E0,0E0,0E0,0E0,0E0,0E0,0E0,0E0,0E0,0E0,0E0,0E0,0E0,0E0,0E0,0E0,0E0,0E0,0E0,0E0,0E0,0E0,0E0,0E0,0E0,0E0,0E0,0E0,0E0,0E0,0E0,0E0,0E0,0E0,0E0,0E0,0E0],"parents":[2147483647,0,0,1,1,2,2,3,3,4,4,5,5,6,6,7,7,8,8,9,9,10,10,11,11,12,12,13,13,14,14,17,17,18,18,19,19,20,20,21,21,22,22,23,23,24,24,25,25,26,26,27,27,28,28,30,30,31,31,32,32,37,37,38,38,39,39,40,40,41,41,42,42,43,43,44,44,45,45,46,46,49,49,50,50,51,51,52,52,53,53,54,54,55,55,56,56],"right_children":[2,4,6,8,10,12,14,16,18,20,22,24,26,28,30,-1,-1,32,34,36,38,40,42,44,46,48,50,52,54,-1,56,58,60,-1,-1,-1,-1,62,64,66,68,70,72,74,76,78,80,-1,-1,82,84,86,88,90,92,94,96,-1,-1,-1,-1,-1,-1,-1,-1,-1,-1,-1,-1,-1,-1,-1,-1,-1,-1,-1,-1,-1,-1,-1,-1,-1,-1,-1,-1,-1,-1,-1,-1,-1,-1,-1,-1,-1,-1,-1,-1],"split_conditions":[-4.1314554E-1,-5.399061E-1,1.6183424E0,1.7005348E-1,-2.3529412E-1,2.025207E0,-1.9364892E0,3.85E2,3.7540108E-1,2.7081417E-3,4.0962568E-1,-5.71123E-1,3E0,-2.2139038E-1,-1E0,-2.8789186E-1,-3.162953E-2,2.7081417E-3,-7.9812205E-1,4.097761E0,-3.647059E-1,2.5750452E-1,2.7081417E-3,1.0729818E0,2E0,1.7370892E-1,1.89E2,2.0234742E0,2.0234742E0,3.4455344E-1,2.7081417E-3,-5.7276994E-1,2.942329E-1,-9.682528E-2,-2.8060487E-1,-2.5454456E-1,-7.898109E-2,-3.6898395E-1,-3.080214E-1,-6.631016E-2,-9.9904484E-1,-4.600939E-1,9.9893045E-1,3.69E2,1.4319249E0,1.0088587E0,1.0150588E2,4.9334767E-1,3.6858118E-1,1.81E2,3.87E2,-3.3262032E-1,3.739568E0,-4.064171E-2,2.6619718E0,1.06E2,1E0,-2.662614E-1,7.8902185E-2,-1.07533045E-1,7.333704E-1,-6.477047E-2,-2.948285E-1,1.1000207E-1,-2.3923272E-1,3.1204304E-2,-1.53653E-1,-2.3594101E-1,2.4388333E-1,-3.0387816E-1,-1.5982401E-1,-1.938701E-1,2.5030388E-2,-2.6386198E-1,6.92174E-3,7.67519E-2,-1.9552466E-1,-1.5087668E-2,3.4700382E-1,7.521957E-2,-1.2738807E-1,1.5320645E-2,2.343908E-1,-1.2530276E-1,1.6713414E-1,-2.4699199E-1,1.08933434E-1,-7.6505303E-1,-1.2474697E-1,7.776746E-2,-3.812133E-1,1.0071433E-1,-1.2975512E-1,5.0491218E-2,-6.349414E-2,3.1525394E-1,6.0884144E-2],"split_indices":[1,1,1,0,0,3,4,2,0,4,0,0,3,0,4,0,0,4,1,3,0,0,4,1,3,1,2,1,1,0,4,1,0,0,0,0,0,0,0,0,4,1,0,2,1,3,2,0,0,2,2,0,1,0,1,2,4,0,0,0,0,0,0,0,0,0,0,0,0,0,0,0,0,0,0,0,0,0,0,0,0,0,0,0,0,0,0,0,0,0,0,0,0,0,0,0,0],"split_type":[0,0,0,0,0,0,0,0,0,0,0,0,0,0,0,0,0,0,0,0,0,0,0,0,0,0,0,0,0,0,0,0,0,0,0,0,0,0,0,0,0,0,0,0,0,0,0,0,0,0,0,0,0,0,0,0,0,0,0,0,0,0,0,0,0,0,0,0,0,0,0,0,0,0,0,0,0,0,0,0,0,0,0,0,0,0,0,0,0,0,0,0,0,0,0,0,0],"sum_hessian":[8.842771E3,3.87569E2,8.455202E3,1.284344E2,2.591346E2,6.6537817E3,1.8014205E3,7.703933E1,5.139507E1,6.350669E1,1.9562791E2,5.875207E3,7.785746E2,5.005733E1,1.7513633E3,7.508709E1,1.9522418E0,1.0786702E1,4.0608368E1,3.4724434E1,2.8782255E1,1.0644419E2,8.918373E1,9.606557E1,5.779141E3,1.1275086E2,6.658237E2,6.6316776E0,4.3425655E1,1.382816E1,1.737535E3,7.232586E0,3.5541165E0,1.8546019E0,3.8753765E1,3.332517E1,1.3992643E0,1.3492405E1,1.528985E1,8.432844E1,2.2115753E1,4.4173508E1,4.5010223E1,6.3445568E1,3.2620003E1,5.461944E3,3.1719736E2,4.37058E1,6.904507E1,4.2715045E2,2.3867326E2,2.7083273E0,3.9233503E0,7.3814683E0,3.6044186E1,1.1797041E3,5.5783093E2,5.9338875E0,1.2986989E0,1.9700677E0,1.5840487E0,5.2979193E0,8.194486E0,7.668147E0,7.6217036E0,3.6268204E1,4.8060234E1,2.5986109E0,1.9517143E1,1.7620808E1,2.65527E1,1.5626339E1,2.9383884E1,6.2295647E1,1.1499193E0,2.2935865E1,9.684137E0,5.367194E3,9.475027E1,7.522409E1,2.4197327E2,3.135863E2,1.1356417E2,2.145225E2,2.4150753E1,1.0156776E0,1.6926496E0,2.9184036E0,1.0049466E0,2.5167866E0,4.864682E0,2.093512E1,1.5109067E1,1.0602112E3,1.19492935E2,4.2478035E1,5.153529E2],"tree_param":{"num_deleted":"0","num_feature":"5","num_nodes":"97","size_leaf_vector":"1"}},{"base_weights":[-5.4398784E-4,-3.1463465E-1,2.7691994E-2,-7.797504E-1,-2.243448E-1,-1.5526365E-1,4.8596982E-2,-8.680892E-1,-5.9208286E-1,-3.7876523E-1,-6.429276E-2,-5.584434E-1,-8.4840134E-2,1.5493703E-2,1.6177589E-1,-9.424087E-1,-7.023365E-1,-7.248322E-1,-3.6526653E-1,-4.435686E-1,4.4306975E-2,-7.8539455E-1,5.4234304E-3,-1.0998598E0,-1.23941675E-1,-3.6859125E-2,-4.1430572E-1,-5.8086184E-3,2.5658283E-1,6.2079436E-1,2.861011E-2,-2.890217E-1,-7.248314E-2,3.635371E-1,-8.727796E-1,-7.902378E-1,7.288996E-2,-2.6904368E-1,-5.2753262E-2,-3.3484066E-1,-8.4111285E-1,-2.8899717E-1,1.0678935E0,-1.5615247E-1,-8.9925504E-1,2.2616167E-1,-2.3281291E-1,-3.3845517E-1,2.3430314E-2,2.54374E-1,-8.351296E-1,7.7515975E-2,-1.3444515E-1,3.504758E-1,-5.0578547E-1,-1.0671436E-3,-8.6744475E-1,6.0720855E-1,2.2003026E-1,1.467682E-1,7.225809E-1,-4.3155587E-1,1.666391E-1,-1.2625138E-1,-2.933692E-1,-1.6364796E-1,-2.688426E-1,3.5887203E-1,-9.215058E-2,-1.5289071E-1,-2.7873514E-2,1.3423446E-1,-3.356719E-1,5.392667E-2,-2.0640704E-1,-1.4870694E-1,5.221564E-1,-1.0380532E-1,7.066525E-2,-2.802102E-1,-5.955858E-2,9.4796814E-2,-2.0676254E-1,-1.1565857E-1,7.572469E-2,2.0317596E-1,2.4372572E-2,-3.37537E-1,6.260128E-2,-5.765175E-2,8.586045E-2,7.723121E-4,-1.1827036E-1,-3.3068088E-1,-8.689521E-2,-5.02889E-3,6.7128085E-2,-5.8903116E-1,-3.854169E-2,1.0980875E-1,2.251708E-1,6.8737686E-2,-1.8894036E-1,-2.770646E-1,1.0560425E-1,2.9661953E-1,1.7511137E-1,-6.6299185E-2,-3.5156596E-1,2.3227744E-1,-1.4506311E-3],"categories":[],"categories_nodes":[],"categories_segments":[],"categories_sizes":[],"default_left":[0,0,0,0,0,0,0,0,0,0,0,0,0,0,0,0,0,0,0,0,0,0,0,0,0,0,0,0,0,0,0,0,0,0,0,0,0,0,0,0,0,0,0,0,0,0,0,0,0,0,0,0,0,0,0,0,0,0,0,0,0,0,0,0,0,0,0,0,0,0,0,0,0,0,0,0,0,0,0,0,0,0,0,0,0,0,0,0,0,0,0,0,0,0,0,0,0,0,0,0,0,0,0,0,0,0,0,0,0,0,0],"id":10,"left_children":[1,3,5,7,9,11,13,15,17,19,21,23,25,27,29,31,33,35,37,39,41,43,45,47,49,51,53,55,57,59,61,-1,-1,-1,63,65,-1,-1,67,69,71,73,75,77,79,81,83,-1,-1,85,87,89,91,-1,93,95,97,99,101,103,105,107,109,-1,-1,-1,-1,-1,-1,-1,-1,-1,-1,-1,-1,-1,-1,-1,-1,-1,-1,-1,-1,-1,-1,-1,-1,-1,-1,-1,-1,-1,-1,-1,-1,-1,-1,-1,-1,-1,-1,-1,-1,-1,-1,-1,-1,-1,-1,-1,-1],"loss_changes":[7.669177E1,2.977893E1,3.0353573E1,1.4016266E0,1.477318E1,2.306083E1,2.6678455E1,2.795143E-1,9.434824E-1,8.36842E0,1.4844849E1,2.8290775E1,1.09558735E1,2.830438E1,9.848282E1,5.00576E-1,1.0056671E1,1.7299929E0,2.7485402E0,1.113641E1,1.4418327E1,1.7245979E0,1.4260426E1,1.8789139E0,1.8552738E1,6.7842197E0,1.3349103E1,2.0689781E1,5.6007767E0,1.7375778E1,7.947521E1,0E0,0E0,0E0,8.1934166E-1,1.0715675E-1,0E0,0E0,4.0731006E0,8.794601E0,2.0571064E1,6.1063786E0,1.1771021E1,4.6813643E-1,3.46632E-1,1.1790487E1,9.762337E0,0E0,0E0,3.2588463E0,7.4701786E0,1.58160095E1,1.1671181E1,0E0,1.0511162E1,1.77814E1,2.219488E1,1.1661253E0,3.2883453E0,1.4670649E1,1.0438248E1,4.4749992E1,1.00276306E2,0E0,0E0,0E0,0E0,0E0,0E0,0E0,0E0,0E0,0E0,0E0,0E0,0E0,0E0,0E0,0E0,0E0,0E0,0E0,0E0,0E0,0E0,0E0,0E0,0E0,0E0,0E0,0E0,0E0,0E0,0E0,0E0,0E0,0E0,0E0,0E0,0E0,0E0,0E0,0E0,0E0,0E0,0E0,0E0,0E0,0E0,0E0,0E0],"parents":[2147483647,0,0,1,1,2,2,3,3,4,4,5,5,6,6,7,7,8,8,9,9,10,10,11,11,12,12,13,13,14,14,15,15,16,16,17,17,18,18,19,19,20,20,21,21,22,22,23,23,24,24,25,25,26,26,27,27,28,28,29,29,30,30,34,34,35,35,38,38,39,39,40,40,41,41,42,42,43,43,44,44,45,45,46,46,49,49,50,50,51,51,52,52,54,54,55,55,56,56,57,57,58,58,59,59,60,60,61,61,62,62],"right_children":[2,4,6,8,10,12,14,16,18,20,22,24,26,28,30,32,34,36,38,40,42,44,46,48,50,52,54,56,58,60,62,-1,-1,-1,64,66,-1,-1,68,70,72,74,76,78,80,82,84,-1,-1,86,88,90,92,-1,94,96,98,100,102,104,106,108,110,-1,-1,-1,-1,-1,-1,-1,-1,-1,-1,-1,-1,-1,-1,-1,-1,-1,-1,-1,-1,-1,-1,-1,-1,-1,-1,-1,-1,-1,-1,-1,-1,-1,-1,-1,-1,-1,-1,-1,-1,-1,-1,-1,-1,-1,-1,-1,-1],"split_conditions":[-3.0985916E-1,-5.2582157E-1,-3.6791444E-1,-5.8215964E-1,1.8609625E-1,-9.9904484E-1,3.847565E1,2.942329E-1,2.7081417E-3,1.0088587E0,-9.9904484E-1,1.0516431E0,9.988474E1,2.9459665E0,1E2,3.85E2,3.3475935E-1,4.097761E0,-1.6149732E-1,-1.3903744E-2,4.812834E-2,2.745544E-1,8.042781E-1,3.71E2,-3.6898395E-1,-3.6898395E-1,-7.0354734E-3,3E0,-3.197861E-1,8.506243E1,1.79E2,-2.890217E-1,-7.248314E-2,3.635371E-1,-9.9904484E-1,-5.586854E-1,7.288996E-2,-2.6904368E-1,-1.2620321E-1,2.7081417E-3,-9.9904484E-1,2.9421136E0,2.025207E0,2.4812834E-1,2.901584E0,1.31E2,8.506243E1,-3.3845517E-1,2.3430314E-2,1.5855637E0,3.9632232E0,1.2816901E0,1.0729818E0,3.504758E-1,-5.71123E-1,2.4085562E0,2.7081417E-3,-3.5872298E-1,3.1340623E0,-7.511737E-2,2E0,1.65E2,1.86E2,-1.2625138E-1,-2.933692E-1,-1.6364796E-1,-2.688426E-1,3.5887203E-1,-9.215058E-2,-1.5289071E-1,-2.7873514E-2,1.3423446E-1,-3.356719E-1,5.392667E-2,-2.0640704E-1,-1.4870694E-1,5.221564E-1,-1.0380532E-1,7.066525E-2,-2.802102E-1,-5.955858E-2,9.4796814E-2,-2.0676254E-1,-1.1565857E-1,7.572469E-2,2.0317596E-1,2.4372572E-2,-3.37537E-1,6.260128E-2,-5.765175E-2,8.586045E-2,7.723121E-4,-1.1827036E-1,-3.3068088E-1,-8.689521E-2,-5.02889E-3,6.7128085E-2,-5.8903116E-1,-3.854169E-2,1.0980875E-1,2.251708E-1,6.8737686E-2,-1.8894036E-1,-2.770646E-1,1.0560425E-1,2.9661953E-1,1.7511137E-1,-6.6299185E-2,-3.5156596E-1,2.3227744E-1,-1.4506311E-3],"split_indices":[1,1,0,1,0,4,2,0,4,3,4,1,2,1,2,2,0,3,0,0,0,0,0,2,0,0,4,2,0,2,2,0,0,0,4,1,0,0,0,4,4,3,3,0,0,2,2,0,0,1,1,1,1,0,0,0,4,0,0,1,3,2,2,0,0,0,0,0,0,0,0,0,0,0,0,0,0,0,0,0,0,0,0,0,0,0,0,0,0,0,0,0,0,0,0,0,0,0,0,0,0,0,0,0,0,0,0,0,0,0,0],"split_type":[0,0,0,0,0,0,0,0,0,0,0,0,0,0,0,0,0,0,0,0,0,0,0,0,0,0,0,0,0,0,0,0,0,0,0,0,0,0,0,0,0,0,0,0,0,0,0,0,0,0,0,0,0,0,0,0,0,0,0,0,0,0,0,0,0,0,0,0,0,0,0,0,0,0,0,0,0,0,0,0,0,0,0,0,0,0,0,0,0,0,0,0,0,0,0,0,0,0,0,0,0,0,0,0,0,0,0,0,0,0,0],"sum_hessian":[8.645522E3,7.122683E2,7.933254E3,1.1454896E2,5.9771936E2,8.128604E2,7.1203936E3,7.54211E1,3.912786E1,3.035162E2,2.9420312E2,1.1983966E2,6.9302075E2,5.509947E3,1.610447E3,4.8837795E1,2.6583305E1,2.329706E1,1.5830801E1,2.6315884E2,4.0357357E1,2.5031096E1,2.6917203E2,5.2673664E1,6.716599E1,6.058945E2,8.712626E1,5.0635166E3,4.4642984E2,3.6132135E2,1.2491257E3,4.7053284E1,1.784512E0,1.6740113E0,2.4909294E1,2.1994123E1,1.3029354E0,5.169113E0,1.0661688E1,2.08089E2,5.506985E1,3.0985428E1,9.371931E0,4.1987004E0,2.0832396E1,1.3974332E2,1.294287E2,5.147813E1,1.1955365E0,4.4262783E1,2.2903214E1,2.7904596E2,3.268485E2,4.117896E0,8.300836E1,5.0368013E3,2.6715643E1,4.0672478E1,4.0575735E2,6.430254E1,2.970188E2,2.877357E2,9.6139E2,5.6445756E0,1.9264717E1,8.500435E0,1.349369E1,1.1777714E0,9.483916E0,1.2016358E2,8.792542E1,9.658342E0,4.5411507E1,1.4500547E1,1.648488E1,2.8980985E0,6.4738326E0,2.9065022E0,1.2921981E0,1.9530113E1,1.302283E0,1.2785169E2,1.189163E1,9.860142E1,3.0827282E1,1.201183E1,3.225095E1,1.7862623E1,5.04059E0,1.21765335E2,1.5728064E2,2.1463477E2,1.1221373E2,2.0987526E1,6.202084E1,4.7089795E3,3.2782144E2,1.009156E1,1.6624083E1,1.6487818E1,2.418466E1,4.0218335E2,3.573998E0,9.783552E0,5.4518993E1,9.974402E1,1.972748E2,2.250324E2,6.27033E1,2.1082338E2,7.5056665E2],"tree_param":{"num_deleted":"0","num_feature":"5","num_nodes":"111","size_leaf_vector":"1"}},{"base_weights":[-5.288805E-4,-6.899707E-1,7.952779E-3,-8.191268E-1,-4.9648997E-1,-8.277286E-2,5.408207E-2,-9.0860575E-1,-6.3295233E-1,-8.42348E-1,-3.7472847E-1,-6.73846E-2,-4.945358E-1,4.7358E-2,6.75314E-1,-2.812455E-1,-5.9028808E-2,7.6184976E-1,-8.265354E-1,-2.755123E-1,-4.8872467E-2,-2.2362088E-1,-2.6905754E-1,-7.857095E-2,6.27312E-1,-7.8772074E-1,1.9613685E-1,6.124664E-2,-2.8875762E-1,8.085995E-1,-3.895653E-1,-1.6377138E-1,5.003927E-1,-3.5375887E-1,-2.8674215E-1,-3.4084132E-1,4.2731392E-1,-6.7315996E-2,-7.201155E-1,-2.9514554E-1,7.8778946E-1,-6.132939E-1,-3.4094375E-1,3.419217E-1,-4.3328455E-1,3.786829E-2,3.182251E-1,-8.3650523E-1,2.1940967E-2,9.212502E-1,4.092469E-1,2.0823449E-1,-4.7111198E-1,2.0511644E-1,-2.4105017E-1,-5.050307E-2,-2.6189005E-1,-2.69242E-2,9.235622E-2,-3.7022236E-1,-1.4202456E-1,2.9349276E-1,-2.13039E-2,-2.7327985E-1,-7.35495E-2,-3.7119463E-1,1.3901852E-1,4.171217E-3,4.3075133E-2,3.4353027E-1,6.083548E-2,-1.8427485E-1,-4.221639E-1,5.4528724E-2,-2.278176E-1,2.8824645E-1,8.533035E-2,-1.0110625E-1,1.9420393E-1,2.1802458E-1,-7.776694E-2],"categories":[],"categories_nodes":[],"categories_segments":[],"categories_sizes":[],"default_left":[0,0,0,0,0,0,0,0,0,0,0,0,0,0,0,0,0,0,0,0,0,0,0,0,0,0,0,0,0,0,0,0,0,0,0,0,0,0,0,0,0,0,0,0,0,0,0,0,0,0,0,0,0,0,0,0,0,0,0,0,0,0,0,0,0,0,0,0,0,0,0,0,0,0,0,0,0,0,0,0,0],"id":11,"left_children":[1,3,5,7,9,11,13,15,17,19,21,23,25,27,29,-1,-1,31,33,-1,-1,35,-1,37,39,41,43,45,47,49,51,-1,-1,53,-1,55,-1,57,59,-1,61,63,-1,65,-1,67,69,71,73,75,77,79,-1,-1,-1,-1,-1,-1,-1,-1,-1,-1,-1,-1,-1,-1,-1,-1,-1,-1,-1,-1,-1,-1,-1,-1,-1,-1,-1,-1,-1],"loss_changes":[4.9662796E1,2.1724663E0,3.511623E1,4.303398E-1,1.5312071E0,1.7887562E1,2.3203337E1,6.0632896E-1,6.809663E0,3.988676E-1,2.5007167E0,2.1245407E1,2.0754705E1,2.5711021E1,8.758036E0,0E0,0E0,4.8326426E0,9.195404E-1,0E0,0E0,5.8723273E0,0E0,1.9340258E1,1.1979483E1,3.6595917E0,7.935239E0,3.174687E1,3.721691E1,2.016037E0,5.474457E0,0E0,0E0,3.3518157E0,0E0,2.3167307E0,0E0,2.2244905E1,5.2727375E0,0E0,6.6085796E0,5.245468E0,0E0,6.2104945E0,0E0,1.22764845E1,4.18329E1,9.173443E0,1.767557E1,7.521057E-1,2.6174648E0,1.575831E0,0E0,0E0,0E0,0E0,0E0,0E0,0E0,0E0,0E0,0E0,0E0,0E0,0E0,0E0,0E0,0E0,0E0,0E0,0E0,0E0,0E0,0E0,0E0,0E0,0E0,0E0,0E0,0E0,0E0],"parents":[2147483647,0,0,1,1,2,2,3,3,4,4,5,5,6,6,7,7,8,8,9,9,10,10,11,11,12,12,13,13,14,14,17,17,18,18,21,21,23,23,24,24,25,25,26,26,27,27,28,28,29,29,30,30,33,33,35,35,37,37,38,38,40,40,41,41,43,43,45,45,46,46,47,47,48,48,49,49,50,50,51,51],"right_children":[2,4,6,8,10,12,14,16,18,20,22,24,26,28,30,-1,-1,32,34,-1,-1,36,-1,38,40,42,44,46,48,50,52,-1,-1,54,-1,56,-1,58,60,-1,62,64,-1,66,-1,68,70,72,74,76,78,80,-1,-1,-1,-1,-1,-1,-1,-1,-1,-1,-1,-1,-1,-1,-1,-1,-1,-1,-1,-1,-1,-1,-1,-1,-1,-1,-1,-1,-1],"split_conditions":[-5.164319E-1,-5.8215964E-1,1.6703062E-1,2.942329E-1,-2.684492E-1,3.06E2,3.85E2,3.85E2,3.3475935E-1,1.8208926E2,1.1550802E0,2.770817E2,3.75E2,3.17E2,4E0,-2.812455E-1,-5.9028808E-2,2.7081417E-3,-9.9904484E-1,-2.755123E-1,-4.8872467E-2,9.9893045E-1,-2.6905754E-1,2.4537375E2,-2.9090908E-1,2.320713E0,5.9358795E2,2.025207E0,7.887324E-1,1E0,9.827017E-1,-1.6377138E-1,5.003927E-1,7.144385E-1,-2.8674215E-1,3.7540108E-1,4.2731392E-1,1.8155779E2,2.5737344E2,-2.9514554E-1,3.9555435E0,1.0088587E0,-3.4094375E-1,-9.9904484E-1,-4.3328455E-1,1.2067295E0,3E0,2.8438003E0,4E0,2.2695186E0,1.0088587E0,4.8404974E2,-4.7111198E-1,2.0511644E-1,-2.4105017E-1,-5.050307E-2,-2.6189005E-1,-2.69242E-2,9.235622E-2,-3.7022236E-1,-1.4202456E-1,2.9349276E-1,-2.13039E-2,-2.7327985E-1,-7.35495E-2,-3.7119463E-1,1.3901852E-1,4.171217E-3,4.3075133E-2,3.4353027E-1,6.083548E-2,-1.8427485E-1,-4.221639E-1,5.4528724E-2,-2.278176E-1,2.8824645E-1,8.533035E-2,-1.0110625E-1,1.9420393E-1,2.1802458E-1,-7.776694E-2],"split_indices":[1,1,1,0,0,2,2,2,0,2,0,2,2,2,3,0,0,4,4,0,0,0,0,2,0,3,2,3,1,4,4,0,0,0,0,0,0,2,2,0,3,3,0,4,0,0,3,3,3,0,3,2,0,0,0,0,0,0,0,0,0,0,0,0,0,0,0,0,0,0,0,0,0,0,0,0,0,0,0,0,0],"split_type":[0,0,0,0,0,0,0,0,0,0,0,0,0,0,0,0,0,0,0,0,0,0,0,0,0,0,0,0,0,0,0,0,0,0,0,0,0,0,0,0,0,0,0,0,0,0,0,0,0,0,0,0,0,0,0,0,0,0,0,0,0,0,0,0,0,0,0,0,0,0,0,0,0,0,0,0,0,0,0,0,0],"sum_hessian":[8.490898E3,1.0221094E2,8.3886875E3,5.9355278E1,4.285566E1,2.8272827E3,5.5614043E3,3.7467358E1,2.1887918E1,9.618041E0,3.3237617E1,2.7265505E3,1.0073202E2,5.5029185E3,5.848609E1,3.570196E1,1.7653959E0,2.309807E0,1.9578112E1,8.333855E0,1.2841862E0,2.6885172E1,6.352446E0,2.6842148E3,4.2335655E1,7.061571E1,3.0116306E1,5.2853403E3,2.1757793E2,5.2193913E1,6.2921786E0,1.1080981E0,1.2017088E0,5.006123E0,1.4571989E1,2.5840357E1,1.0448167E0,2.6390222E3,4.519282E1,3.3701468E0,3.8965508E1,4.891169E1,2.1704016E1,2.838526E1,1.731048E0,4.8456587E3,4.3968152E2,7.813576E1,1.3944217E2,3.9690903E1,1.2503011E1,4.72416E0,1.5680183E0,1.3565441E0,3.6495788E0,2.0508522E1,5.331834E0,2.4908552E3,1.481669E2,1.3359081E1,3.1833738E1,3.1776861E1,7.1886454E0,2.6229868E1,2.2681822E1,1.3713155E0,2.7013943E1,3.9511252E3,8.9453375E2,5.2771313E1,3.869102E2,5.7729816E1,2.0405943E1,1.16399956E2,2.3042212E1,3.688981E1,2.8010955E0,2.9237456E0,9.579266E0,1.9767846E0,2.7473755E0],"tree_param":{"num_deleted":"0","num_feature":"5","num_nodes":"81","size_leaf_vector":"1"}},{"base_weights":[-8.7686337E-4,-5.3707504E-1,6.5978584E-3,-7.2080445E-1,-3.133193E-1,-1.2595537E-1,3.0105617E-2,-2.9450202E-1,-6.2899107E-1,-1.6032161E-1,-6.432169E-1,1.6609076E-1,-2.4152796E-1,1.3619368E0,7.3829754E-3,-4.8115712E-1,-2.8427738E-1,-3.9362866E-1,1.3124548E0,-2.787267E-1,-3.25742E-1,1.783037E-3,1.3671923E0,-4.0032378E-1,6.4843714E-2,1.4541934E0,3.4305695E-1,-4.576696E-2,8.188218E-2,-7.0548177E-1,-5.5624912E-3,-6.4296913E-1,-1.1862306E-1,1.014063E-1,4.4864586E-1,3.5190302E-1,-8.073024E-1,-9.06331E-1,7.7061035E-2,3.5526714E-1,1.65279E0,-3.2941717E-1,-1.1448448E0,1.2965968E-1,-7.6322585E-1,3.6997208E-1,1.6856819E0,1.2863333E-3,-3.3177826E-1,3.37052E-1,9.211152E-3,-2.3838264E-1,9.2648745E-2,-1.11278966E-1,1.4556552E-1,-2.1675617E-1,3.793293E-2,-2.505109E-1,4.382097E-2,-2.7384317E-1,-1.8285384E-2,-1.6036305E-1,-3.6540785E-1,5.479899E-2,-2.1827492E-1,5.804956E-1,3.140642E-1,-2.3867516E-1,-8.0926314E-2,-3.7964028E-1,2.9869253E-2,1.7715341E-1,-7.738573E-4,-4.2708173E-1,-3.672061E-2,5.2966756E-1,2.940093E-1,-5.161748E-3,1.3455889E-1,-3.4122518E-1,-4.7525086E-2,1.4774113E-2,-8.0221325E-2],"categories":[],"categories_nodes":[],"categories_segments":[],"categories_sizes":[],"default_left":[0,0,0,0,0,0,0,0,0,0,0,0,0,0,0,0,0,0,0,0,0,0,0,0,0,0,0,0,0,0,0,0,0,0,0,0,0,0,0,0,0,0,0,0,0,0,0,0,0,0,0,0,0,0,0,0,0,0,0,0,0,0,0,0,0,0,0,0,0,0,0,0,0,0,0,0,0,0,0,0,0,0,0],"id":12,"left_children":[1,3,5,7,9,11,13,-1,15,17,19,21,23,25,27,29,-1,31,33,-1,35,37,39,41,43,45,-1,47,49,51,53,55,57,-1,-1,-1,59,61,63,-1,65,67,69,71,73,-1,75,77,79,-1,81,-1,-1,-1,-1,-1,-1,-1,-1,-1,-1,-1,-1,-1,-1,-1,-1,-1,-1,-1,-1,-1,-1,-1,-1,-1,-1,-1,-1,-1,-1,-1,-1],"loss_changes":[3.3580048E1,4.5097237E0,2.5752552E1,8.791046E-1,2.607658E0,4.205906E1,2.1241643E2,0E0,1.8520069E0,1.3581575E1,1.211566E0,6.9773506E1,4.343921E1,7.09671E-1,2.7335733E1,3.7836971E0,0E0,2.22716E0,4.6300507E-1,0E0,7.7638264E0,2.1399765E1,2.659378E-1,3.0657051E1,1.6494976E1,1.9668884E0,0E0,5.42246E1,2.1757431E2,2.4255123E0,2.4010465E0,1.1558905E0,3.3836596E0,0E0,0E0,0E0,5.539036E-1,2.1258736E0,2.4694607E1,0E0,3.8278198E-1,1.4752838E1,7.7384415E0,1.7319223E1,9.271636E0,0E0,2.9335022E-1,2.8631752E1,7.9321594E1,0E0,2.978158E1,0E0,0E0,0E0,0E0,0E0,0E0,0E0,0E0,0E0,0E0,0E0,0E0,0E0,0E0,0E0,0E0,0E0,0E0,0E0,0E0,0E0,0E0,0E0,0E0,0E0,0E0,0E0,0E0,0E0,0E0,0E0,0E0],"parents":[2147483647,0,0,1,1,2,2,3,3,4,4,5,5,6,6,8,8,9,9,10,10,11,11,12,12,13,13,14,14,15,15,17,17,18,18,20,20,21,21,22,22,23,23,24,24,25,25,27,27,28,28,29,29,30,30,31,31,32,32,36,36,37,37,38,38,40,40,41,41,42,42,43,43,44,44,46,46,47,47,48,48,50,50],"right_children":[2,4,6,8,10,12,14,-1,16,18,20,22,24,26,28,30,-1,32,34,-1,36,38,40,42,44,46,-1,48,50,52,54,56,58,-1,-1,-1,60,62,64,-1,66,68,70,72,74,-1,76,78,80,-1,82,-1,-1,-1,-1,-1,-1,-1,-1,-1,-1,-1,-1,-1,-1,-1,-1,-1,-1,-1,-1,-1,-1,-1,-1,-1,-1,-1,-1,-1,-1,-1,-1],"split_conditions":[-4.8826292E-1,-5.492958E-1,-9.9904484E-1,-3.3262032E-1,3.3475935E-1,-1E0,0E0,-2.9450202E-1,7.144385E-1,2.0320855E-1,9.9893045E-1,-1.9364892E0,1.2816901E0,1.3521127E0,2.7081417E-3,2.6631016E-1,-2.8427738E-1,2.7081417E-3,-5.2582157E-1,-2.787267E-1,1.1550802E0,-3.4117648E-1,2.04E2,2E0,1.6663102E0,2.01E2,3.4305695E-1,1.09E2,1E0,3.85E2,2.7081417E-3,4.097761E0,-3.1657755E-1,1.014063E-1,4.4864586E-1,3.5190302E-1,1.1546024E2,4.741784E-1,9.292659E1,3.5526714E-1,8.0751175E-1,-3.4117648E-1,2.3604279E0,1.5502881E0,2.2695186E0,3.6997208E-1,3.75E2,8.8E1,1.79E2,3.37052E-1,1.07E2,-2.3838264E-1,9.2648745E-2,-1.11278966E-1,1.4556552E-1,-2.1675617E-1,3.793293E-2,-2.505109E-1,4.382097E-2,-2.7384317E-1,-1.8285384E-2,-1.6036305E-1,-3.6540785E-1,5.479899E-2,-2.1827492E-1,5.804956E-1,3.140642E-1,-2.3867516E-1,-8.0926314E-2,-3.7964028E-1,2.9869253E-2,1.7715341E-1,-7.738573E-4,-4.2708173E-1,-3.672061E-2,5.2966756E-1,2.940093E-1,-5.161748E-3,1.3455889E-1,-3.4122518E-1,-4.7525086E-2,1.4774113E-2,-8.0221325E-2],"split_indices":[1,1,4,0,0,4,4,0,0,0,0,4,1,1,4,0,0,4,1,0,0,0,2,3,0,2,0,2,4,2,4,3,0,0,0,0,2,1,2,0,1,0,0,1,0,0,2,2,2,0,2,0,0,0,0,0,0,0,0,0,0,0,0,0,0,0,0,0,0,0,0,0,0,0,0,0,0,0,0,0,0,0,0],"split_type":[0,0,0,0,0,0,0,0,0,0,0,0,0,0,0,0,0,0,0,0,0,0,0,0,0,0,0,0,0,0,0,0,0,0,0,0,0,0,0,0,0,0,0,0,0,0,0,0,0,0,0,0,0,0,0,0,0,0,0,0,0,0,0,0,0,0,0,0,0,0,0,0,0,0,0,0,0,0,0,0,0,0,0],"sum_hessian":[8.376514E3,1.14190926E2,8.262323E3,6.1484016E1,5.2706905E1,1.2439126E3,7.01841E3,1.3482948E1,4.800107E1,3.7022728E1,1.5684179E1,3.5256396E2,8.913487E2,1.1674516E2,6.901665E3,3.450199E1,1.3499078E1,3.2592396E1,4.4303317E0,7.23915E0,8.445029E0,3.1101886E2,4.1545128E1,5.8686395E2,3.044847E2,7.809877E1,3.864639E1,4.028208E3,2.873457E3,2.3115631E1,1.138636E1,1.639209E1,1.6200304E1,1.1507403E0,3.2795916E0,1.7044493E0,6.74058E0,2.2963196E1,2.8805566E2,2.8459188E1,1.30859375E1,5.371495E2,4.9714508E1,2.8316388E2,2.1320831E1,4.319607E1,3.4902702E1,3.4599827E3,5.682253E2,1.8645525E2,2.6870017E3,2.144764E1,1.6679915E0,6.6671386E0,4.7192216E0,1.4911317E1,1.480773E0,3.7893586E0,1.2410946E1,5.71031E0,1.03027E0,1.1710254E1,1.1252941E1,2.5532018E2,3.2735477E1,7.4313493E0,5.6545877E0,5.9547676E1,4.7760178E2,4.5305996E1,4.408512E0,6.236329E1,2.2080058E2,9.898616E0,1.1422216E1,3.000432E1,4.898381E0,3.3235264E3,1.3645625E2,9.963657E1,4.685887E2,2.3479883E3,3.3901358E2],"tree_param":{"num_deleted":"0","num_feature":"5","num_nodes":"83","size_leaf_vector":"1"}},{"base_weights":[7.603207E-4,-1.443709E-1,2.0527408E-2,-5.412611E-1,-1.06792904E-1,2.2575526E-2,-1.0647657E0,-2.956411E-1,-3.9629343E-1,-2.9070789E-2,-3.3360618E-1,5.195186E-3,1.2490083E-1,-1.5999337E0,5.7481635E-1,1.7627662E-1,-5.2127934E-1,-1.7262213E-1,1.9507003E-1,-7.2481745E-1,-1.8489327E-1,1.5016697E-2,-3.1725398E-1,3.29595E-1,4.0342536E-2,-1.841005E0,6.800781E-2,-4.608483E-2,2.609926E-1,9.2929465E-1,-3.2749116E-1,-7.800583E-1,-2.534535E-1,-2.7688218E-2,-4.832826E-1,6.7280924E-1,2.1179557E-2,-9.47888E-1,-6.0006835E-2,-2.7325237E-1,4.7473264E-1,8.133771E-3,4.443276E-1,-1.292953E0,-1.4224683E-1,-2.1346451E-1,1.5265723E-1,-7.435435E-1,-1.1678165E0,-5.6397125E-2,4.317987E-1,6.2383384E-2,-2.5182247E-1,-3.8110003E-2,-2.9434648E-1,1.31006E-1,-3.1378377E-2,-2.0570846E-1,7.073572E-2,1.5969384E-2,4.1023734E-1,2.825216E-2,-1.5120532E-1,-2.6708484E-2,-3.3849412E-1,3.3653396E-1,-1.6895187E-1,-4.8375666E-2,-2.5369626E-1,2.5281882E-1,-1.0213036E-1,4.7128187E-3,-2.9128212E-1,1.8064207E-1,-7.393019E-2,-4.3231502E-1,-3.0279206E-2,-9.028453E-2,1.988817E-1,-5.587697E-1,-5.1427033E-2,3.6112583E-1,2.1248425E-3,-4.1902688E-1,-1.5876973E-1],"categories":[],"categories_nodes":[],"categories_segments":[],"categories_sizes":[],"default_left":[0,0,0,0,0,0,0,0,0,0,0,0,0,0,0,0,0,0,0,0,0,0,0,0,0,0,0,0,0,0,0,0,0,0,0,0,0,0,0,0,0,0,0,0,0,0,0,0,0,0,0,0,0,0,0,0,0,0,0,0,0,0,0,0,0,0,0,0,0,0,0,0,0,0,0,0,0,0,0,0,0,0,0,0,0],"id":13,"left_children":[1,3,5,7,9,11,13,-1,15,17,19,21,23,25,27,29,31,33,35,37,39,41,43,-1,45,47,-1,-1,-1,49,-1,51,53,55,57,59,61,63,65,67,69,71,73,75,77,79,81,-1,83,-1,-1,-1,-1,-1,-1,-1,-1,-1,-1,-1,-1,-1,-1,-1,-1,-1,-1,-1,-1,-1,-1,-1,-1,-1,-1,-1,-1,-1,-1,-1,-1,-1,-1,-1,-1],"loss_changes":[2.369208E1,1.470709E1,1.6180424E1,5.1075554E0,1.59546E1,1.2903323E1,1.29509735E1,0E0,4.8182344E0,2.1770712E1,1.3306759E1,1.965027E1,8.6694046E1,5.0857944E0,1.0172802E0,1.3026236E1,3.5770302E0,1.8552856E1,2.193573E1,9.329037E0,9.964411E0,1.7787647E1,3.1133694E1,0E0,2.7692337E1,1.1718407E0,0E0,0E0,0E0,5.076336E0,0E0,1.7705708E0,2.4738102E0,1.0125243E1,1.9245495E1,3.0259365E1,7.5132866E0,7.232521E0,1.0721857E1,9.444058E0,6.375925E0,4.3975765E1,1.0503147E1,4.7569695E0,2.0215282E1,2.0346317E1,1.0300392E2,0E0,2.1101189E-1,0E0,0E0,0E0,0E0,0E0,0E0,0E0,0E0,0E0,0E0,0E0,0E0,0E0,0E0,0E0,0E0,0E0,0E0,0E0,0E0,0E0,0E0,0E0,0E0,0E0,0E0,0E0,0E0,0E0,0E0,0E0,0E0,0E0,0E0,0E0,0E0],"parents":[2147483647,0,0,1,1,2,2,3,3,4,4,5,5,6,6,8,8,9,9,10,10,11,11,12,12,13,13,14,14,15,15,16,16,17,17,18,18,19,19,20,20,21,21,22,22,24,24,25,25,29,29,31,31,32,32,33,33,34,34,35,35,36,36,37,37,38,38,39,39,40,40,41,41,42,42,43,43,44,44,45,45,46,46,48,48],"right_children":[2,4,6,8,10,12,14,-1,16,18,20,22,24,26,28,30,32,34,36,38,40,42,44,-1,46,48,-1,-1,-1,50,-1,52,54,56,58,60,62,64,66,68,70,72,74,76,78,80,82,-1,84,-1,-1,-1,-1,-1,-1,-1,-1,-1,-1,-1,-1,-1,-1,-1,-1,-1,-1,-1,-1,-1,-1,-1,-1,-1,-1,-1,-1,-1,-1,-1,-1,-1,-1,-1,-1],"split_conditions":[-2.2535211E-1,-3.6791444E-1,1.5E1,-4.4171122E-1,8.042781E-1,1.0088587E0,3.35E2,-2.956411E-1,-3.7489852E-1,1.7754011E-1,1.1818181E0,2.06E2,2E0,3.0093896E0,8.403756E-1,-3.4741783E-1,-3.3802816E-1,-6.0962565E-2,2.848178E-1,8.506243E1,2.025207E0,1.8155779E2,2.68E2,3.29595E-1,2.025207E0,1.91E2,6.800781E-2,-4.608483E-2,2.609926E-1,2.7081417E-3,-3.2749116E-1,-3.6898395E-1,3E0,-3.529412E-1,2.9584732E1,-3.2394367E-1,1.05E2,-4.5539907E-1,1.0150588E2,2.7638083E0,4.9096317E0,1.24E2,1.1549295E0,1.4793949E0,3.75E2,5.4E1,3E0,-7.435435E-1,4.0962568E-1,-5.6397125E-2,4.317987E-1,6.2383384E-2,-2.5182247E-1,-3.8110003E-2,-2.9434648E-1,1.31006E-1,-3.1378377E-2,-2.0570846E-1,7.073572E-2,1.5969384E-2,4.1023734E-1,2.825216E-2,-1.5120532E-1,-2.6708484E-2,-3.3849412E-1,3.3653396E-1,-1.6895187E-1,-4.8375666E-2,-2.5369626E-1,2.5281882E-1,-1.0213036E-1,4.7128187E-3,-2.9128212E-1,1.8064207E-1,-7.393019E-2,-4.3231502E-1,-3.0279206E-2,-9.028453E-2,1.988817E-1,-5.587697E-1,-5.1427033E-2,3.6112583E-1,2.1248425E-3,-4.1902688E-1,-1.5876973E-1],"split_indices":[1,0,3,0,0,3,2,0,0,0,0,2,3,1,1,1,1,0,0,2,3,2,2,0,3,2,0,0,0,4,0,0,2,0,2,1,2,1,2,0,3,2,1,0,2,2,3,0,0,0,0,0,0,0,0,0,0,0,0,0,0,0,0,0,0,0,0,0,0,0,0,0,0,0,0,0,0,0,0,0,0,0,0,0,0],"split_type":[0,0,0,0,0,0,0,0,0,0,0,0,0,0,0,0,0,0,0,0,0,0,0,0,0,0,0,0,0,0,0,0,0,0,0,0,0,0,0,0,0,0,0,0,0,0,0,0,0,0,0,0,0,0,0,0,0,0,0,0,0,0,0,0,0,0,0,0,0,0,0,0,0,0,0,0,0,0,0,0,0,0,0,0,0],"sum_hessian":[8.256438E3,9.889801E2,7.2674585E3,8.437949E1,9.0460065E2,7.254747E3,1.271164E1,1.9335098E1,6.5044395E1,6.745729E2,2.3002774E2,6.2023115E3,1.0524353E3,9.601759E0,3.1098819E0,1.1580919E1,5.3463474E1,4.1135184E2,2.6322107E2,6.2290215E1,1.6773752E2,6.0199043E3,1.8240742E2,8.313089E1,9.693044E2,8.475344E0,1.1264151E0,1.0350341E0,2.0748477E0,7.4333167E0,4.1476026E0,2.6218266E1,2.7245207E1,2.8123502E2,1.3011679E2,6.947614E1,1.9374493E2,4.6321648E1,1.5968565E1,1.4843933E2,1.92982E1,5.925916E3,9.39883E1,2.677022E1,1.556372E2,2.9707596E2,6.722284E2,2.9757588E0,5.4995847E0,2.5276475E0,4.905669E0,1.3438232E0,2.4874443E1,2.421331E1,3.0318975E0,3.9293774E1,2.4194125E2,1.0157158E2,2.8545214E1,3.7291424E1,3.2184715E1,1.7082376E2,2.2921173E1,8.300962E0,3.8020687E1,4.4014444E0,1.1567121E1,1.2521967E2,2.3219648E1,1.327263E1,6.0255704E0,5.881392E3,4.452355E1,7.6613365E1,1.737493E1,2.3626009E1,3.1442106E0,1.3053506E2,2.510214E1,6.3086777E0,2.907673E2,8.0892044E1,5.9133636E2,3.174294E0,2.3252907E0],"tree_param":{"num_deleted":"0","num_feature":"5","num_nodes":"85","size_leaf_vector":"1"}},{"base_weights":[3.908386E-4,-6.3485414E-1,4.196618E-3,-2.8373918E-1,-5.408771E-1,7.2208364E-3,-5.909638E-1,-3.8848045E-1,-2.7544236E-1,-9.2103705E-2,2.443301E-2,1.5091212E-1,-8.362696E-1,-6.163531E-1,-1.1067329E-2,1.2436625E-1,-1.7729966E-1,3.7966344E-1,8.389715E-3,-2.7392083E-1,4.0281016E-1,-1.4385554E0,-4.0752724E-1,-7.190118E-1,7.815983E-2,4.1648534E-1,-3.4993434E-1,4.4470355E-3,3.7793052E-1,-1.1575745E-1,-7.310415E-1,2.389494E-2,-1.8875815E-1,6.009824E-1,-1.4001499E-1,-1.6166643E0,5.926771E-2,-7.7122223E-1,1.23167954E-1,-1.1068007E-1,-2.7448484E-1,-2.008614E-1,2.8358853E-1,1.479595E-1,-2.0290522E-1,-1.9347431E-1,2.2389863E-2,-7.093233E-2,2.9405534E-2,-2.639195E-1,-2.81426E-2,2.018731E-3,1.337581E-1,-1.0770679E-1,1.5075623E-2,-4.7859687E-2,2.273339E-1,-9.329889E-2,-6.014449E-1,6.792299E-3,-2.766518E-1,-2.3884226E-1,1.8366422E-1],"categories":[],"categories_nodes":[],"categories_segments":[],"categories_sizes":[],"default_left":[0,0,0,0,0,0,0,0,0,0,0,0,0,0,0,0,0,0,0,0,0,0,0,0,0,0,0,0,0,0,0,0,0,0,0,0,0,0,0,0,0,0,0,0,0,0,0,0,0,0,0,0,0,0,0,0,0,0,0,0,0,0,0],"id":14,"left_children":[1,3,5,-1,7,9,11,13,-1,15,17,19,21,23,25,27,29,-1,31,-1,33,35,37,39,-1,41,43,45,-1,47,49,51,53,55,-1,57,-1,59,61,-1,-1,-1,-1,-1,-1,-1,-1,-1,-1,-1,-1,-1,-1,-1,-1,-1,-1,-1,-1,-1,-1,-1,-1],"loss_changes":[1.9775314E1,9.119129E-1,1.4639046E1,0E0,1.9283085E0,1.3834188E1,7.609337E0,2.5768175E0,0E0,2.2064335E1,1.3731099E2,3.333344E0,7.4327564E0,1.8719144E0,1.9318762E0,4.603349E1,2.915693E1,0E0,2.0820196E1,0E0,1.9417218E0,3.9673157E0,3.8656464E0,8.2978535E-1,0E0,4.0255003E0,2.3758478E0,1.4032464E1,0E0,1.9977015E1,8.031658E0,4.5731487E1,2.0228014E1,1.1092505E0,0E0,5.1531277E0,0E0,1.4264789E0,4.4466243E0,0E0,0E0,0E0,0E0,0E0,0E0,0E0,0E0,0E0,0E0,0E0,0E0,0E0,0E0,0E0,0E0,0E0,0E0,0E0,0E0,0E0,0E0,0E0,0E0],"parents":[2147483647,0,0,1,1,2,2,4,4,5,5,6,6,7,7,9,9,10,10,11,11,12,12,13,13,14,14,15,15,16,16,18,18,20,20,21,21,22,22,23,23,25,25,26,26,27,27,29,29,30,30,31,31,32,32,33,33,35,35,37,37,38,38],"right_children":[2,4,6,-1,8,10,12,14,-1,16,18,20,22,24,26,28,30,-1,32,-1,34,36,38,40,-1,42,44,46,-1,48,50,52,54,56,-1,58,-1,60,62,-1,-1,-1,-1,-1,-1,-1,-1,-1,-1,-1,-1,-1,-1,-1,-1,-1,-1,-1,-1,-1,-1,-1,-1],"split_conditions":[-5.492958E-1,-3.3262032E-1,1.1E1,-2.8373918E-1,7.144385E-1,-9.9904484E-1,9.468873E1,2.6631016E-1,-2.7544236E-1,-1E0,0E0,8.1E1,1.933463E2,3.85E2,3.4545454E-1,-1.9364892E0,1.07E2,3.7966344E-1,2.01E2,-2.7392083E-1,1.5E1,1.3521127E0,4.7379678E-1,-1.5614973E-1,7.815983E-2,-6.85446E-1,-9.9904484E-1,-3.037433E-1,3.7793052E-1,1.2816901E0,3.55E2,1.8155779E2,2.7081417E-3,1.1267348E1,-1.4001499E-1,-2.1146244E-1,5.926771E-2,-3.8609627E-1,5.9624416E-1,-1.1068007E-1,-2.7448484E-1,-2.008614E-1,2.8358853E-1,1.479595E-1,-2.0290522E-1,-1.9347431E-1,2.2389863E-2,-7.093233E-2,2.9405534E-2,-2.639195E-1,-2.81426E-2,2.018731E-3,1.337581E-1,-1.0770679E-1,1.5075623E-2,-4.7859687E-2,2.273339E-1,-9.329889E-2,-6.014449E-1,6.792299E-3,-2.766518E-1,-2.3884226E-1,1.8366422E-1],"split_indices":[1,0,3,0,0,4,2,0,0,4,4,2,2,2,0,4,2,0,2,0,3,1,0,0,0,1,4,0,0,1,2,2,4,3,0,4,0,0,1,0,0,0,0,0,0,0,0,0,0,0,0,0,0,0,0,0,0,0,0,0,0,0,0],"split_type":[0,0,0,0,0,0,0,0,0,0,0,0,0,0,0,0,0,0,0,0,0,0,0,0,0,0,0,0,0,0,0,0,0,0,0,0,0,0,0,0,0,0,0,0,0,0,0,0,0,0,0,0,0,0,0,0,0,0,0,0,0,0,0],"sum_hessian":[8.1776196E3,4.7713223E1,8.1299062E3,8.969984E0,3.8743237E1,8.089787E3,4.0119167E1,2.9041565E1,9.701673E0,1.1941982E3,6.895589E3,1.0064874E1,3.0054295E1,1.7713497E1,1.1328068E1,3.3713354E2,8.5706464E2,8.700475E1,6.8085845E3,1.424257E0,8.640616E0,1.1518346E1,1.853595E1,1.601825E1,1.6952472E0,4.9073505E0,6.4207172E0,3.0583563E2,3.1297916E1,7.7242706E2,8.4637596E1,6.312963E3,4.956212E2,7.2883754E0,1.352241E0,1.0398268E1,1.1200775E0,1.0729559E1,7.8063912E0,6.7826777E0,9.235573E0,1.519864E0,3.387487E0,1.6493924E0,4.771325E0,2.9032984E1,2.7680264E2,4.9364307E2,2.78784E2,6.831631E1,1.632129E1,6.0671626E3,2.4580032E2,2.8914203E2,2.0647913E2,1.2428288E0,6.045547E0,2.7956073E0,7.6026607E0,1.8500369E0,8.879521E0,2.4926887E0,5.3137026E0],"tree_param":{"num_deleted":"0","num_feature":"5","num_nodes":"63","size_leaf_vector":"1"}},{"base_weights":[5.3758116E-4,-4.689255E-1,4.1734534E-3,-7.4614596E-1,-3.2653865E-1,-1.0555988E-2,9.898411E-2,-8.093528E-1,5.4476177E-3,3.3652237E-1,-4.3123487E-1,-3.8536885E-1,-4.4809203E-3,1.0367486E-1,-1.2995981E0,-2.5413707E-1,-5.0028086E-2,-6.2751454E-1,-1.4786623E-1,-7.1030647E-1,-9.187243E-2,-8.39079E-3,3.7527063E-1,1.12965174E-1,-4.2652753E-1,1.0484508E-1,-8.4101504E-1,-6.343867E-3,-6.5388924E-1,3.9432816E-2,-2.3563379E-1,-7.3569745E-1,7.603976E-2,2.1940894E-1,-2.803761E-1,1.7786147E-3,-4.2688417E-1,5.773089E-1,-4.673418E-2,-2.3569992E-1,1.253926E-1,-7.592913E-1,2.531906E-1,-2.2429208E-1,-1.0453778E-1,-1.7047453E-1,1.2004071E-1,-1.7943767E-1,-3.1569806E-1,-1.2279891E-1,1.4456947E-1,-2.4112941E-1,1.5750343E-2,-6.026692E-3,3.3129107E-2,-8.95094E-2,-3.2064644E-1,8.128743E-2,2.534157E-1,-3.304376E-1,5.5623792E-2,-3.5859078E-1,-2.213999E-2,3.5067115E-2,1.8685322E-1,-1.2846717E-1,-4.8490053E-1],"categories":[],"categories_nodes":[],"categories_segments":[],"categories_sizes":[],"default_left":[0,0,0,0,0,0,0,0,0,0,0,0,0,0,0,0,0,0,0,0,0,0,0,0,0,0,0,0,0,0,0,0,0,0,0,0,0,0,0,0,0,0,0,0,0,0,0,0,0,0,0,0,0,0,0,0,0,0,0,0,0,0,0,0,0,0,0],"id":15,"left_children":[1,3,5,7,9,11,13,15,-1,-1,17,19,21,23,25,-1,-1,27,29,31,33,35,37,39,41,-1,-1,-1,43,45,-1,47,-1,49,51,53,55,57,59,61,63,65,-1,-1,-1,-1,-1,-1,-1,-1,-1,-1,-1,-1,-1,-1,-1,-1,-1,-1,-1,-1,-1,-1,-1,-1,-1],"loss_changes":[1.3823612E1,2.2131176E0,1.12237215E1,9.973984E-1,6.988323E0,1.5838417E1,7.224557E0,3.1527424E-1,0E0,0E0,2.1724963E0,1.0515192E1,1.0168837E1,5.358202E0,1.0121403E1,0E0,0E0,3.6605453E-1,2.1775022E0,1.4712791E0,3.5493436E0,2.8845934E1,5.977791E0,4.6235857E0,8.577691E0,0E0,0E0,0E0,3.903303E-1,3.4814367E0,0E0,1.6100235E0,0E0,3.9898272E0,6.5686913E0,1.5726279E1,1.2947155E1,3.6438131E0,5.963551E0,5.634719E0,4.2598515E0,3.678341E0,0E0,0E0,0E0,0E0,0E0,0E0,0E0,0E0,0E0,0E0,0E0,0E0,0E0,0E0,0E0,0E0,0E0,0E0,0E0,0E0,0E0,0E0,0E0,0E0,0E0],"parents":[2147483647,0,0,1,1,2,2,3,3,4,4,5,5,6,6,7,7,10,10,11,11,12,12,13,13,14,14,17,17,18,18,19,19,20,20,21,21,22,22,23,23,24,24,28,28,29,29,31,31,33,33,34,34,35,35,36,36,37,37,38,38,39,39,40,40,41,41],"right_children":[2,4,6,8,10,12,14,16,-1,-1,18,20,22,24,26,-1,-1,28,30,32,34,36,38,40,42,-1,-1,-1,44,46,-1,48,-1,50,52,54,56,58,60,62,64,66,-1,-1,-1,-1,-1,-1,-1,-1,-1,-1,-1,-1,-1,-1,-1,-1,-1,-1,-1,-1,-1,-1,-1,-1,-1],"split_conditions":[-5.164319E-1,-1.764706E-1,2.140845E0,3.85E2,-1.5614973E-1,-5.71123E-1,3.2101312E0,4.097761E0,5.4476177E-3,3.3652237E-1,2.7081417E-3,1.0938967E0,3.75E2,8.26345E0,2.713615E0,-2.5413707E-1,-5.0028086E-2,-7.9812205E-1,1.0588236E0,3.71E2,1.4319249E0,3.3E2,1E0,-1.9364892E0,2.0320857E0,1.0484508E-1,-8.4101504E-1,-6.343867E-3,-5.492958E-1,1.7005348E-1,-2.3563379E-1,4.030003E-1,7.603976E-2,-9.026738E-1,1.6713614E0,8.637229E1,3.9555435E0,3.42723E-1,-1.8309858E-1,-2.2139038E-1,2.971123E0,9.943653E-1,2.531906E-1,-2.2429208E-1,-1.0453778E-1,-1.7047453E-1,1.2004071E-1,-1.7943767E-1,-3.1569806E-1,-1.2279891E-1,1.4456947E-1,-2.4112941E-1,1.5750343E-2,-6.026692E-3,3.3129107E-2,-8.95094E-2,-3.2064644E-1,8.128743E-2,2.534157E-1,-3.304376E-1,5.5623792E-2,-3.5859078E-1,-2.213999E-2,3.5067115E-2,1.8685322E-1,-1.2846717E-1,-4.8490053E-1],"split_indices":[1,0,1,2,0,0,0,3,0,0,4,1,2,1,1,0,0,1,0,2,1,2,4,4,0,0,0,0,1,0,0,4,0,0,1,2,3,1,1,0,0,4,0,0,0,0,0,0,0,0,0,0,0,0,0,0,0,0,0,0,0,0,0,0,0,0,0],"split_type":[0,0,0,0,0,0,0,0,0,0,0,0,0,0,0,0,0,0,0,0,0,0,0,0,0,0,0,0,0,0,0,0,0,0,0,0,0,0,0,0,0,0,0,0,0,0,0,0,0,0,0,0,0,0,0,0,0,0,0,0,0,0,0,0,0,0,0],"sum_hessian":[8.096482E3,6.1239796E1,8.035242E3,1.9341856E1,4.189794E1,6.955543E3,1.0796995E3,1.781005E1,1.5318058E0,2.1697116E0,3.972823E1,1.09943375E2,6.8455996E3,1.0770131E3,2.686358E0,1.6520697E1,1.2893534E0,2.2753311E1,1.6974916E1,5.150295E1,5.8440426E1,6.776804E3,6.8795135E1,1.0592397E3,1.7773275E1,1.6473918E0,1.0389662E0,1.0235329E0,2.1729778E1,1.3845682E1,3.129234E0,5.0411488E1,1.091463E0,2.1980108E1,3.6460316E1,6.617007E3,1.5979774E2,4.627337E1,2.2521769E1,3.5836674E1,1.02340314E3,1.4403206E1,3.3700693E0,1.5518565E1,6.211214E0,4.9429064E0,8.902777E0,3.715646E1,1.3255026E1,6.308939E0,1.5671169E1,1.3624183E1,2.2836134E1,5.5090527E3,1.107954E3,1.343624E2,2.5435345E1,2.2504732E1,2.3768637E1,3.3873198E0,1.9134449E1,4.251932E0,3.1584742E1,1.00741974E3,1.5983403E1,1.1471523E1,2.931682E0],"tree_param":{"num_deleted":"0","num_feature":"5","num_nodes":"67","size_leaf_vector":"1"}},{"base_weights":[-3.5609795E-5,-4.8908517E-2,2.7053254E-2,-1.8743339E-1,-1.2250628E-2,-1.7058398E-3,8.698552E-2,-1.0188475E-1,-4.009479E-1,4.374899E-1,-2.4292132E-2,1.2827236E-3,-7.189863E-1,3.193428E-1,3.1338647E-2,-3.7039936E-2,-5.8245194E-1,5.019713E-2,-7.595782E-1,2.2592919E-1,1.9785616E0,6.6728843E-3,-2.0142563E-1,-3.4669645E-3,4.6185872E-1,-1.5447699E0,-7.361176E-2,5.7527058E-2,-2.7935943E-1,-3.796747E-1,4.346895E-2,-6.8743396E-1,3.9182425E-1,2.2439672E-1,-5.9058326E-1,-9.4299865E-1,-3.3575125E-2,-3.1217888E-1,3.711509E-1,6.467466E-1,1.9161306E-1,-3.164471E-2,4.6132722E-1,-7.163318E-1,-6.254758E-2,7.6235947E-3,-3.316795E-1,5.3879094E-1,-4.911732E-1,3.7056476E-2,-5.7077795E-1,-9.391502E-1,3.3467796E-1,4.3041725E-2,8.531109E-1,-1.900196E-1,-1.1728182E0,-2.0294869E-1,-2.9251343E-2,-5.9787765E-2,4.72465E-2,5.890869E-2,-2.3667036E-1,2.4696255E-1,-2.1627164E-1,1.2815914E-2,4.1657916E-1,8.92542E-2,-2.1960378E-1,-3.3294412E-1,-1.9090657E-1,7.305993E-2,-2.317617E-1,5.7448328E-2,-2.5732994E-1,7.671668E-1,3.1730574E-2,-4.257855E-2,6.6737058E-3,1.584253E-1,-9.285684E-2,-1.4058603E-1,-3.6941323E-1,1.0296555E-1,-4.758157E-2,-7.334685E-4,1.0859222E-1,-2.7338722E-1,-3.150201E-2,-4.165928E-2,1.8156934E-1,-2.6214528E-1,3.2137033E-2,-5.870932E-2,-3.5904205E-1,-9.891086E-2,2.7955395E-1,1.0490141E-1,3.1675608E-3,3.5187185E-1,2.0262073E-1,3.7503712E-2,-1.0728209E-1,-7.93164E-1,-2.1029326E-1],"categories":[],"categories_nodes":[],"categories_segments":[],"categories_sizes":[],"default_left":[0,0,0,0,0,0,0,0,0,0,0,0,0,0,0,0,0,0,0,0,0,0,0,0,0,0,0,0,0,0,0,0,0,0,0,0,0,0,0,0,0,0,0,0,0,0,0,0,0,0,0,0,0,0,0,0,0,0,0,0,0,0,0,0,0,0,0,0,0,0,0,0,0,0,0,0,0,0,0,0,0,0,0,0,0,0,0,0,0,0,0,0,0,0,0,0,0,0,0,0,0,0,0,0,0],"id":16,"left_children":[1,3,5,7,9,11,13,15,17,19,21,23,25,-1,27,29,31,33,35,37,39,41,43,45,47,49,51,53,55,57,59,61,63,65,67,69,71,73,75,-1,-1,77,79,81,83,85,87,89,91,-1,-1,93,95,97,99,101,103,-1,-1,-1,-1,-1,-1,-1,-1,-1,-1,-1,-1,-1,-1,-1,-1,-1,-1,-1,-1,-1,-1,-1,-1,-1,-1,-1,-1,-1,-1,-1,-1,-1,-1,-1,-1,-1,-1,-1,-1,-1,-1,-1,-1,-1,-1,-1,-1],